1.4029864753837427
-0.9191485333899269
0.5470131878256833
0.8917473020718069
-0.5101984359736365
-1.1541797227816202
0.04086157024552158
-0.24176192489236145
-0.06722516326616881
0.04876031027335735
-1.041035438715572
-0.9388446994419973
-0.2347320327455279
0.026858475355658454
-1.6275467217742683
0.2841326475157245
1.0569496558225089
1.2318453695539402
0.6860757049916628
1.2804868328987655
-0.949767552457086
1.965986446329542
-1.194757538779918
-2.281709825723102
0.6551992151048819
-0.6820094907567359
0.8242599957592275
-0.7544896331586834
0.05294748602186505
1.303803859002968
0.6797684981777091
0.41332044000914475
-0.15499528531791645
1.2122291039679491
-0.635948373671433
1.139466559803835
-0.5143764450441498
-0.7534788885527206
-0.04798723434928973
0.1893393318020701
-0.412668897706553
0.22436791481151971
0.6312015591007031
0.23553350376396107
0.20291696151317587
-1.1157077120235588
-1.275967359662561
0.409286695741502
0.5150833627356651
1.7585330594219701
-0.8929420441257226
4.753532966348564e-05
-0.9515648135601767
1.1636184413906383
-1.3775878587123622
-0.6281772588810686
-0.7993857102911481
0.610430934238215
0.7002906487128826
-1.3155900016291395
1.1636781373713003
0.9850074654969667
-0.9669435028277286
-1.5708665417254504
0.865214642888979
-0.055153638112874194
0.058366054028634984
0.7253414093814378
1.0705065049688407
-1.1213247282111616
-0.27273105740541975
0.13351584262802588
0.5863690610465718
-2.05742383340885
-1.9340669404026083
-0.9730682958476735
-0.8206236079517658
0.9187074880347131
0.37576585912438915
-0.03270395888384145
-1.557300782651825
-1.1546616751985368
-2.3676475951555167
1.5348129595158388
0.06806185976982929
0.12818674646747905
-0.7872113425713613
-0.3803997371452316
0.8282320160129719
-0.38473781308781274
-0.9642473334598551
0.9084653266944099
1.166504993064101
1.4032775682735807
0.18904016341853455
-1.409268543431834
0.9875476680074419
1.6486972431426603
0.6151400138331703
-1.8654022608300846
2.018211955767069
-0.5300775401407735
-0.028572024314198963
0.873474280354311
0.3829797348986878
0.09588090242009147
-0.6132920383107119
-0.30772744040715355
0.5865507949226834
-1.5496525817350741
0.44032112605102636
-2.0745946268248154
0.8457567183041287
-0.32770927736352035
0.8080330937383045
0.3871916206544139
0.46144158407257296
-0.7283283881208582
-1.6876587482552563
1.058747591359335
-0.44446030699394434
1.3348491028325171
-0.16431073010043237
0.11916295206864293
-1.1432802153348658
-0.044240552333012634
1.071776187638579
-1.684851070865201
-0.6847252382368646
-0.5792237859045491
0.5618354318001638
0.3812973007661782
-1.270105920339268
0.5628021461905935
-0.3099899127414917
-0.9354669418571111
1.1403481748269677
-1.4610104613556616
0.04079805188651496
0.8578974723843911
-0.3962970794144574
-0.7919736676064135
0.027156346910084207
-0.1283246155551064
1.8290128221116682
-0.163579806305015
0.0723970799735984
2.269819438517931
-0.4077114919224894
0.29919181222267055
-0.33692676103258107
-1.0123899694596368
-0.39779668584371586
-0.3890093893125035
-1.0363557001784298
-0.8238073592961744
-0.5105341320787135
2.038284850752671
-1.151431696892656
0.7298778745435245
0.8511646653202255
-0.3939503203006027
1.907537600715122
-2.047312108055046
-0.7904832599287355
0.9620828813499046
0.8902326108529274
1.2337076772934465
-0.031228663280523625
-0.5738872204085128
-0.37380811059813834
-0.05558123999479152
0.6808076703000802
-0.032271414328024
0.8747764407194293
-0.3003700144425238
-0.027025959447874063
-1.457934078334089
-0.3098963887986311
-0.4936569484020665
-0.6912346693843499
0.03234956068460248
0.5725954553049414
0.08884962096058083
-0.8350867747861932
-1.1437175391070307
0.17150055808107798
0.10389650267912287
0.9233880131716765
-0.3586156616816239
0.23158947056245852
0.05901121054383638
0.17909094335979803
-0.1326807179635333
0.34263052819952267
1.7946460682943308
-0.09461186631638605
-1.7539114360927477
-0.10482751040034595
-1.0890717203420344
-0.21237668670259766
-0.9019717768792836
-0.8787510192798681
0.4853816383704393
-0.17792547505201634
0.16042361386124626
0.30831520101842197
1.3535837025759094
0.710641364941814
0.6162322327203715
-1.1169383070100458
0.31346541578845427
0.3765594202403339
1.8545951482284144
0.84996265620571
0.801050119548336
-0.3309009859631245
0.7446615139644923
-0.7270600671296893
0.7851843034363367
1.2833403679140714
-0.7439118836108746
-0.21514241050653257
-0.21851950450848334
0.731648605927885
0.1427521358419883
-0.6984628539224029
-0.24369351073140472
0.35765820304115825
-0.5169653737925186
-0.2929647858284531
0.7213825812029345
0.952020562699821
0.7935669676762251
-0.5683636870642883
1.2469225207906232
1.0698205674238253
-0.8557215102176706
-0.42238780216731386
1.3368410540303985
0.5005936206046557
-1.3179714635030493
-0.8982968340752365
0.08944044511558277
1.3379151256899862
0.43197760087364706
-1.6601442431081577
1.5635042939388233
2.241071386453932
-0.40681728467894823
0.3335044138135226
1.6922801340144589
-0.17654368682864086
0.17147620323149548
-0.11046954222091596
0.6972230403202393
0.9183320850087088
-0.14003476364339598
0.7975595353718281
0.42618896467800754
-0.1460245850132495
-0.6687256855081388
-0.10656727061882763
-1.469316184512283
0.09005238207412422
0.040483286942043735
1.1646443340267527
-1.920290864293089
0.6287954930844765
1.313896409723612
0.3331417477639913
-0.11380276054813625
1.4116212842859788
-0.14929153077997007
1.4006457333012305
0.3773795170447094
-0.9730588492176019
1.615861654396895
-0.6680675409792123
-0.9355785300189552
-0.8788113810132934
-1.1025769264726892
0.1083641411863844
0.07426327710085054
0.46080735168120934
1.1430400905802953
0.6442605463141367
1.1527217242225205
1.9240323002230946
0.34515767857545016
1.5502356948480747
0.723064323137671
0.6510248644156438
-0.46102994583747936
-0.11841073174358449
0.9671298550921283
0.6601835883813706
0.7734058534841115
0.11479557534083837
-1.3246130690299578
-0.2394765365332611
1.3632437260087809
1.166110415117158
1.1783626789987878
0.4240993278988509
-0.6856581227310548
2.3502871066225546
-0.5054583377747012
-0.37790525110415846
0.7801173518547004
-0.8076826883661186
-1.2803749738435137
-0.47267940993325414
0.2112674564071418
-0.4888174208595947
1.480758835130858
-0.5506894448415309
1.5050004916147304
-1.5320333419185879
1.0143179247807723
-1.1446842838861429
0.12186601677033898
-0.778016487723663
1.3447664301909046
0.9728588133827168
-1.0639479144833341
0.11041664340632633
0.41055618403072014
-0.5047073492718973
0.8688882962727392
0.4368810659859433
0.47253808065466324
-1.1829156875151643
0.18709276373600706
0.35034330491215404
0.5956297158408009
-0.31179790888032366
-0.21423069398348324
0.327520665008997
1.0605286266909308
-0.961227980698664
-1.3327089959356841
0.15310905256008808
-1.0175485243372717
-0.8546183566759867
0.5073153639872788
0.07157518980116631
1.7681406809004652
-1.0743186907904894
0.6881350149621409
-0.18600045201692605
-1.0554639723828938
-0.23343664426953728
-0.8018619320945154
-0.988618884769926
1.783378206687844
1.050473686295932
0.236257309169363
-0.5796162547089815
-1.0683593910134794
-0.15669492986628508
0.07636054406889048
-0.592857763824325
-0.4580814945146209
0.9637952613989388
-1.880224820211847
0.003422899251364486
-0.09136171357916788
-0.7146440501745916
-0.05015596200624376
-0.033346555787730076
-0.47824407361386306
0.4123042254208796
-0.43766960107951913
-0.9352069851330587
0.4881787881302727
0.8235763746861668
-0.12879399830847507
-0.556793447440707
0.5224858160371328
0.1708710197918797
0.6411046107042766
-0.29897991661807866
-0.3112085180996903
-0.8308221564698294
0.020598735276599327
0.47198534616155474
0.879232108507091
-1.3539574520978173
-0.36918193067975175
0.08605662166645425
0.7731891489741761
2.045770948545279
1.2518583600470399
-0.4690660823112662
1.121407403866254
-1.025890461229321
0.6063188153229836
1.6027713526437537
-1.3815323072939276
-0.9561251080990638
0.44532105652226456
-1.310003710681609
1.4961461391059703
-0.9700507927595815
-0.6223782152756943
1.0962770070400571
0.9630663559354558
0.3326861981459427
0.30151633760580293
-0.01938365487681741
-0.6758330690759872
0.6082193429053832
0.541649714339441
-0.9850849405340805
-0.24838304280554804
-1.5714114894098576
0.9385003502165906
-0.8828011224610919
1.007886419291169
-0.7577815496392692
-0.04049743974305124
2.0326570536818167
-0.3281979401903901
1.566009271937848
0.47008666502248037
-1.5811244011326329
1.8976117030023738
-0.17901606555421284
0.17891596207171237
1.3812909614297004
-1.4152366521473125
0.6676703887805955
-0.557070384368946
-1.524284541418661
0.6912306243271367
-0.7421949475216387
0.456996399442017
0.46356927107879264
-1.5380529627732875
0.6392174492004089
-0.1203538431629069
-0.1147002348571345
-0.09851702409992695
-2.3048139173167494
0.332338595259531
0.42494774415354103
-0.27894598167717694
0.19667022196829398
-0.3614759715403874
-0.27656543292189073
-0.9434331687187404
0.7368519059486233
-1.367685589392881
1.7235414461987257
0.3347442052355889
0.3956064983038001
-1.9622988432734474
0.3997710567069078
1.7261488442280797
-1.8650748736061145
-0.08861929717162742
-1.6325297617167325
1.5658019894676178
-1.1355313077636149
1.3878076373247379
0.0515516298801988
-0.700095375761183
1.9010172187449952
1.928339366707481
0.6543849688464857
-0.23084284791260018
-0.4934792547202147
-0.9340403704501269
-0.5052621871779323
0.7254421948906391
0.5030228577822898
-0.20378088005918127
-1.2079733745803751
1.2863991873868832
1.027746350333245
-0.35030987942539377
-1.2711906912986137
-0.7203132369695879
-0.12422783530011877
0.11735348679477045
-1.2806212976563047
0.3567907732739033
-0.47773223201089837
0.7183260629333079
1.05980503676221
1.0103354004375824
0.39635783401133845
1.2903778109303186
1.3405276855748351
-0.10068083905096213
1.1464694396404058
-0.28327914898618073
-1.4141331812173845
0.6699570727280144
0.08416031702500763
1.1698143629183813
0.8159303794579643
0.01390418324292513
0.6270471300309021
-1.4594693893630324
1.7956581182589484
1.3287175326654739
-1.3086991142098905
-0.8714761794379341
-0.8965187036528721
1.312725409295638
0.8181715904809331
-0.1307324909881427
-0.037448720543454425
-0.2648637439525807
1.4417546048835306
-0.8762650823996109
0.14990073367137258
0.4049598654086953
-0.37183454721999837
0.8729295918005971
-0.7530164480941925
-2.4459302828433858
0.28669063087688323
-1.227489946581255
-0.08283877238884016
-1.0668010632868072
1.2742141640253504
-0.03355285140444211
1.6117180240328475
0.3479723808398689
0.2531007244396255
-0.49042240374005036
-2.1096352898795607
0.9934641372866052
0.5341738792035179
-1.264931046353382
0.7035946923375447
-0.21857389702335148
-0.23951562021264294
-1.3310026172511151
-0.38744857179797165
-0.6827434661527065
-0.7390311102036777
-0.6905865267948537
0.030581297663071216
0.06115950857939733
-0.7249547934320262
1.5938986435652427
-0.052886014063691505
0.48408040224036714
-1.5545889404205946
0.6659803723533276
0.5330589303142984
0.5292975446713793
0.698490048845607
1.0792059303407822
-0.5201339189152671
-0.006740207648781574
0.35597973649010367
-0.5968186264070966
1.3304323479837608
0.9593428428888012
-0.46405875277026404
-0.9054851426765977
-0.18007632903448043
0.764115984916541
-0.35812407217040376
-0.824280937843562
-0.2708574760422188
0.8177252229680204
0.7439987973998374
-0.3305669242639542
0.19125843009790233
-0.5605030154304703
-0.4155456593527834
1.1117679311625843
0.9412019235065214
-2.2365516166895216
0.6722701126094626
0.02597140640025849
-0.9096729229272382
-0.522329950270749
0.5356985758754594
1.611487631326795
-1.31400113034647
-0.1451528037161351
0.3791075231615226
-1.376808655475838
-0.003126958723257264
-0.019577657818549577
0.5418507511784628
-0.18413214474986284
2.999451264818022
-0.4162558930291684
-0.5093691427891238
-0.8335306445822912
1.2098917198770653
-0.1378260547539613
0.580123441784979
0.17992559948927997
0.12247421791406805
0.09059864896587122
-1.6985256672549154
-0.16650487842808437
-1.8683857454483364
-1.797917824208022
-0.12315445488373321
-0.16130804107055938
3.0811213374186734
1.153284976778724
-1.0761411639796443
-0.03067389853538724
1.0697337351120524
-0.7670012117947249
2.1211089102365728
0.4345209912651978
-0.038912312901622385
0.10552063738386354
0.6363665866997175
0.23904482664045912
0.16152750940431929
0.03416589606737462
2.4171438055203605
-0.8555700698162438
-0.5036707582661017
-0.36506280147513565
0.09350613394801814
0.37472466796768467
-0.44078138794176974
0.912117916917866
2.1219264945707397
0.7158238257662829
-0.9062155608795454
-1.3435982316550596
-0.2757262126709546
0.22880228032924244
0.4103501141005231
-1.5564603992227137
0.8049400737740804
-0.024854321794558407
-0.9579383003683968
0.53560076497684
1.2277551365088806
-0.3163285242356654
0.6278266857052645
1.034930666521923
-0.162205158967523
-2.229236175800972
0.18006358080202567
1.4073318534256793
-0.7853485182087592
-0.3530562565416387
-0.28863116161072144
1.119312731953523
2.3859064558338545
-0.22012969944743546
-0.4904529849297921
-0.05802895243878612
0.8200959696378282
-0.22142130042983538
0.01618639289018906
-0.9156979299183613
1.3644564949486222
0.5421098608034155
0.5870199111742752
-0.7976730967477488
-0.3791670324914244
-1.0202932156800448
1.1467850509006787
-0.1986717435310413
1.476095066566737
-0.2303883387636429
-0.7081216371277788
1.1956746855168017
-0.07605383336751372
-0.018740283044788704
0.99020638907212
0.06437210221942391
1.270217949979423
1.3901753941460582
-0.6294989650212099
-0.5599202461330387
1.602408731721623
0.32615826607518517
0.8504063729289615
-0.7931507253566747
0.6986334998093237
0.4035899823036702
-0.6623886734218166
1.6064224144881947
0.32055457485109956
0.7020345334822102
-1.1111329900832925
-0.7410319805966282
-0.41577645630062104
0.17725595486890097
-2.0612442917269984
0.006605147336457988
1.4549122194047301
0.8616293810697757
-1.2168346228337512
-1.1442210314599222
-1.1148680729795943
1.51166102911627
-1.8290675291849101
0.025739721420168
0.32399115544736135
-0.1364863630562367
1.0444730980262396
-1.9244481347864504
1.5295967955738692
1.369860800985491
-1.0808179783613987
0.45736991441867797
-1.7184070349471003
-0.23456061110084495
1.2082279166212213
0.17332348556289046
0.6797363567286133
-1.6992005704273334
-0.6573247869895904
0.27999168978255795
-0.304646662270453
0.2251440924280359
-2.056912659930522
0.850678952079615
0.49639825566606993
-0.23028041777544983
0.23280842942717334
-1.1940966779638635
-1.1315182622860616
-2.092376064906091
-0.29574320117081004
-0.6280174410470788
-0.2559040182220645
0.5790139218446325
0.1194596296488288
-0.06307523009498499
0.3576020151875003
-0.0861192776860097
0.48855030984400216
0.7045407771519454
2.520704185422193
-0.3464529035994853
-0.7132813303138454
-0.5049389026264054
-1.2178441174490025
1.1223162599957632
-0.6211320796764405
1.8350897245245694
-0.5893942398129477
1.4116145803983637
0.38595241900123495
-1.2094397868268276
-0.9518680371022568
2.0431351239933075
1.2191843907216589
-1.4630925542981286
1.4225707138974715
0.1806673213820927
-0.8198015988931769
0.5768341075348329
0.45982113759131754
0.843060605423134
0.24688766762907569
-1.070762233697632
0.629235758910918
-0.075624199137609
0.9742782502967207
-0.33901552972202653
0.798210437134746
-0.48249338320539176
-0.30622334189988765
0.8868589062544119
2.198033180258519
-0.9147858327904095
-0.3561265316322224
-0.2576872723856819
0.2426068051518725
0.026798099782768023
0.5257092678854872
-1.2215373256377804
-1.2457209770538975
-1.0215584660322559
0.68872405699509
0.3056951747145774
0.4797551329554327
-0.6295628871171285
0.7237022721509984
0.5854810220891333
-0.5888749723547756
-1.6112387299085642
0.30517963920804225
0.5680275089271042
-0.97615777555082
-1.1239029760377524
-0.9368441844497665
0.5484464328195342
1.0362155292805362
-0.6081253840486425
1.4986905566458264
-0.60830410024083
0.2126454143203334
-0.3131324330434681
0.8172843194645873
0.25021991730818394
0.1772697272964892
-0.959308552480844
0.6426469325413903
0.9267969980540192
-1.1173652573712338
-0.6611031379305884
0.5763241510881763
-1.0713305225042473
-0.5004684970686135
0.1577312844286265
-1.1219628437009828
1.7743980567155142
0.641134939242731
0.03515805122281656
-1.1510408102084615
-1.6318528701392427
-1.392418673791164
-0.6632196863014767
-0.15835488227562988
1.2149832330901498
-1.0202099705343521
0.09749445948184596
-0.13524495114499108
0.4642715804355596
0.5657077200399524
-0.8017431653619689
-1.4203993759320956
1.6154864691290598
1.2928370007891836
0.9118428782110952
1.004235224423037
-0.05442075722710652
0.2761328505092412
1.2858729954906594
0.7374985712156755
1.3740396322547572
0.4751362754860957
-1.4504384652186615
1.6891554292100435
-0.13129155602452872
-0.877077884508042
0.23607411838434925
-0.31538949372667685
0.3705552347054097
0.11492097615593778
-1.4329160540925199
-2.209639617134669
0.07640016693102622
-1.2635231227652146
-0.8266912628054861
-0.0914470581813961
0.3321722123217084
1.6217361447597431
-0.5046418239263708
-0.37625841847886216
-0.6304036508357821
0.4263398389041437
2.774051714185331
0.4428107640742768
1.2785013816588922
0.1273877653744257
0.29759024618127444
-1.0707625263128637
-0.2816098517479452
2.3708337117169718
-0.19780616111853194
0.010035358118892558
-1.2861314970106201
-0.6872745202899613
0.2266793441960662
0.26486440339535183
0.20390711533435663
-0.39935287560372357
0.15038648406070967
1.027561207233644
0.6105492034834475
-0.628726325122217
1.3489242503329608
1.6186097959619417
0.053896468518495305
-1.496409716736354
-0.8979030909281535
-0.1528693807102867
-0.23177216020494
0.37135120547673356
0.6773412738450395
1.1597367237140497
1.3418099214300037
-0.8047092631954702
0.27276959340597023
0.9640263085118468
-0.5889920484245718
-0.15290250216349763
-0.34959061162865723
-1.5069458737470958
0.3365619531708699
0.9367874307777955
0.7638848175149489
-1.9103733552071234
2.5410314956648183
0.7012452996248791
-0.2855223662062317
-0.637144860568377
-1.0343001721050216
-0.0824394897066888
0.5611252524752939
0.8555201705793206
-0.1980457442429168
-0.49354334793010957
-0.6670891247772006
-0.19623092780728407
0.9908311037167494
-0.043514464041629716
0.01883085172838466
0.20474324048422785
-2.3894490926762657
-1.2476634596134266
1.7795882039232076
-0.5560195916456676
-0.8724427524264483
0.08700881728255261
0.7992296892095907
0.8996172128119175
-0.1824011041175856
-1.129469485192081
0.6385145718044192
0.4864038827338353
-0.6832777388781731
-0.7022832833714524
-0.9381497400932299
-1.1527661870869232
-0.380904871513081
0.7615422949290124
-1.52327321835572
-0.6363993064026506
-1.49260575442153
-0.18203333546755474
-0.7528143823147609
0.27985410265913213
-0.48362400238092296
-0.28759909140278084
1.0506414510708733
-0.10807698450615313
-0.9997541211228412
-1.2524761926298809
-1.2508207281144643
1.0827805557057073
-1.615996667711522
-0.03405507663066421
-1.336372623052781
1.0520395773558606
-1.0494412372458064
-1.2968844132239257
1.8645919192949632
-0.011862215813994745
0.5697984945838944
-1.6036281332801747
-1.50790404440099
1.0213507530849966
-0.89098799854917
-0.6872518342639578
0.6212641450397778
-0.4388039778455509
-0.9603664767185406
1.163762119569535
-0.7038130021695956
-0.8826065773722978
0.6868373836969769
1.2973305086852722
-0.13805061878561087
1.3283254355333713
-1.933255311263154
0.5407600441896128
0.31651762447588194
-1.5019299738340846
1.7177180689201423
1.6260889685780415
0.4673340401678198
-1.072342068990195
-0.7392142255279396
0.6847312041197974
1.4159338282647957
-0.06021415680002356
1.4008487220067638
1.4940232798529192
0.5373823030856625
-0.22657865173020944
-0.33490303215837697
-0.8346813795751766
-0.29006777978758996
-1.489333998242864
0.7343250216695729
-0.3929283907109644
1.693148512790489
0.3507878210689957
-0.3664357368015741
0.9092836324904238
-1.9529846345263855
-1.014168244635516
-0.7971865773535302
-1.3375809921404138
-0.8159115375802851
0.34607620601544437
0.22240483219831536
1.5834529577325889
0.9010308581107539
-1.2826784300231988
-1.25806423394047
0.8051609714535972
0.25199780784496273
0.7807019436136574
-0.3330202978878827
-0.9391768420874655
0.31823047465872323
-1.2706323489488989
2.8010807809106675
-0.2256825662286154
0.23695246219356164
-0.9560960670990466
0.5031910513154891
0.1261379162981624
0.3222538414935259
-0.812005946473033
-0.43946337308378747
1.5103078620299553
0.8915299585782299
0.8530009730799286
0.8716819574853835
0.6449512337626383
-1.6227800902504481
-0.8994290179785434
-0.47289827704365023
0.9260555359346444
-0.2608513349475968
-0.8025343894439708
1.1403548037907052
-2.0164831716138063
-0.7660330375600232
-0.7230577402277053
-0.6875757520601756
0.48087522103046726
0.5192505468829233
0.382466302250695
-0.45997339812005744
-1.633866923868362
-0.13211911805450877
-0.12346022554118288
1.0695858369337903
-0.5979348792585083
0.05874169660350495
-2.7532437088345034
-0.17381761945476282
-0.4931458508856094
-1.040587470009187
-1.5351561308280206
-0.12428172966358587
0.7155424195163212
-0.012369961812987995
-3.041473777799169
0.04965305179411545
1.706003032787408
2.1053207820573396
2.116230869902161
-1.0497513741502387
-0.06240398572399972
-1.3757886140429536
0.5047279340607087
-0.7640234363121678
-0.420525032416613
-0.05034802074520556
0.9526532796029497
-0.0061979595914320815
-1.284356664466501
2.152340347550818
-1.079951961330912
1.5015326695423135
0.33776124935108354
-0.13759998971253756
-0.9580448135102214
1.9780549059802033
1.3476817538723054
0.1830296978007747
0.7151731178157956
-1.6989523490223624
-0.1577432023734093
-0.2838062777184562
-1.5841042985521647
-0.7036096518818097
-0.9243667387189317
1.4754785963129258
-0.5815351233067069
-0.21526046187557993
-1.6178915715590085
-0.40923168742575994
0.5813341775881701
-1.3008901635348766
0.39792416455049556
0.34535392254707703
1.2620331530212499
1.2782346463080467
0.38036578888112027
-1.2762114967451388
0.10937356055657096
-1.0582210296006966
-0.9054258108134756
1.2312631428997054
0.22900702224602554
-0.10267555632038845
-0.11599024566704244
0.9122095134260635
-0.3443666428617495
-0.6248838925076565
1.1708841265980403
-0.6085464590252828
0.24220306499356267
-0.7051648241421858
0.03815589623192151
-0.9027420340714789
0.46613185133034785
-0.32874321108783267
-0.9077593258257418
1.5765840077182658
0.03586120947306983
-1.4204558724926524
0.4793346915221417
0.6665881206996839
0.607604833208316
1.052135159098821
0.39856089050772314
-1.0524180790038122
0.666349672266503
-0.3002399543353233
-1.2042797613256513
0.7962835805400116
-0.6348561634404047
1.6262546803665632
1.3425819392235283
-0.6113101147592067
0.604969490507723
-0.06469476294607489
1.8110275455223037
0.16417887972028083
1.2167929141222775
-1.6765145531305679
-0.30657658552984457
0.6336593292201906
0.4457557044117452
-0.42616386998678957
-1.371956491356481
0.9112061730385818
-0.5024162146182526
0.8875109821113168
-1.4799133404362668
0.8890984868832834
2.0979689557748737
0.40932706004511826
0.14690740863119722
1.1256217362438612
-0.5233360413943191
-0.3868936584104794
0.2351146071488711
-1.0994766743608881
0.6820399784166536
1.1539722658595613
0.24171971912203835
-0.2961868441730697
-0.5585785479724237
-0.18737714166252692
-1.31572968694536
-1.0478648103759134
0.16711923915543825
1.2266739225358396
-0.5406805372937893
-1.371797311373119
1.3772501742504566
-0.4140097095811238
-0.6177493902461254
-0.1348791677347144
-0.1107779844666141
0.4463582256485571
-0.28954435398848416
-0.029786820100989708
-1.346962321706226
-0.9421540903099528
-0.3793618817696521
1.6937317013558522
-0.5939483455699257
-0.9324227681832274
0.18468970236912738
-0.057800466560043166
-1.2169229409260944
-0.7472647704976135
-0.3991302310551259
-0.5326073234778402
1.5449791232816084
1.409012000891671
-1.369250003830957
1.1239494293175738
1.9203260412858782
0.19051986206320262
-0.1822066591165246
-1.0773870936292946
0.9335059815661465
-0.5083565164936014
-1.1199689554164114
-1.7065108979626138
-2.0978010654316304
-0.8986924370726689
-1.17234015395075
1.3955922259259304
0.31344324161168613
0.2715614867052442
1.4166496475409158
-2.5938087062846162
-0.1010468226403416
2.5748893483520905
0.9934364965916525
1.08841048089101
1.3434770058463161
2.465762129628865
-0.7520100444591132
0.3871845177936005
-0.09113377685477314
0.0728457087826649
0.29854710423424924
0.31490718764280407
0.46810214118396287
-1.2769683707959154
1.5706574816153398
1.0724127473492566
2.511841348075709
0.8947521556151905
2.1129306420090046
1.2458099610819042
0.6853020145085464
0.09999353448755398
-0.4282514208883628
-1.6165143289698263
0.04140260058985858
-0.8915903625420094
1.4510190170921136
-0.5972026541034366
-0.12632177066419742
0.039603909814556845
1.0413310958803128
-1.0596523161722797
0.015487926520845584
-0.3046571807127514
1.2838454691479364
0.5757630425745869
0.09820966825253226
-0.2320854845004115
1.8978223134039092
-1.9391384204321995
0.6724560660146264
0.9089025646857113
0.12141606065299008
0.2873801225995147
1.0345765907834008
-0.2580463557283779
-0.6025258441435878
0.30405895134923433
1.1464273094148123
1.1582681976231002
-0.006614320337807439
0.5205704936721707
0.17246959555929745
-0.6958586474871951
-0.2684628212791876
1.0823620311171611
1.3581956381902933
-0.6442465534863842
1.6816831906303225
0.3223794843934796
0.06608881287128465
0.7561854886369518
0.6967358566068523
-1.9428637760006005
-2.500180396628361
-0.9672497184601158
1.644275621161387
0.030164934962794834
-0.4456561762864529
-0.021454253133976364
-0.6014744377684415
-0.6214515110268044
-0.7673131297090902
0.8401945118021141
0.43970622875495835
-0.49834459593045594
-1.063588043505157
-1.3160847788509893
1.5481252808522885
-1.1318132420461193
-1.3435746660102104
-1.2673145958085856
-0.4651868915802515
-1.334182381439126
0.4525480317084083
-1.1644091995762569
0.13102323689259923
0.9420602709816116
0.9061456154401167
-0.7526060482901327
-0.49010522843937104
0.33371840747636855
0.43686216610365924
-1.6839716580061537
-0.9242846950845328
-0.5311311037601721
1.4386644459089148
0.8202931900028543
1.016931656148739
0.07399203752084278
-1.6702702563258989
0.539007487978555
-2.3529119926592763
0.718626508781819
0.0898045129614998
0.5600742634350218
-0.4519389041981093
-0.27240301965475755
0.21986387361885149
-0.842930791306337
-0.6516825909487515
-1.1009924452177144
1.0056142703516342
0.1674143371731217
1.2008049345484653
-1.2650466663013928
-1.4142828607043776
-0.6976200303906421
0.2729588656237938
2.202688285785291
0.6838767440221665
-0.9838113007094231
-0.6283207669717142
-1.4108861028988058
1.6260311393731168
0.29243020022359617
1.0055220570703511
-1.2656517429096614
-0.3531180951681323
0.4900414838357992
1.080164157017587
-0.3888699285942353
-1.5975383755597183
0.06844640972173283
-0.1140293477296314
-1.692366038466924
-0.5460552963922427
1.0247843245075285
0.12159026853026134
-0.4784464220452759
-0.4319845432203758
1.216030309512812
0.9045653091934237
0.13791276714560016
0.7020054932396738
0.8610663987914745
1.1358118546123324
0.586058823339957
-0.9900087238596017
0.3194245689512312
0.37843005733050045
0.8130716874900037
-0.4898249096273768
1.8465639219857566
-1.9737768186304552
1.6270531292778674
0.2431595469308607
0.5149646789339329
-0.35747529791735516
1.0804618502932084
0.09380997652548613
-0.7709806560260092
0.8417854418500558
0.1680881171908327
-2.085711489008629
1.6525885960498996
-0.6358167427471065
0.5960999382450912
1.2775861116544283
-1.3541227600885197
1.1512452301718183
1.1747157215697297
-1.5020365002901808
2.2691471550027713
-0.9049067148442179
-0.13941793254709808
0.44651745500303786
-0.3070350364182973
-1.724492338065691
0.12885953870207767
0.27624526629838436
-1.394601342707761
0.16045264962413214
-1.540254209452529
-1.1678206761033256
-0.5826211202964814
-0.6651535904139151
0.1554300004750308
-1.2588080943213644
0.9860992106335843
0.22666754690068397
0.9399388533773407
-0.04386262742269651
-1.2286339013415188
-0.14590328456616958
-0.1916146442945208
1.1841368771887484
0.03605071248864377
1.1314960247010883
0.8171705926073053
1.1694211321313024
1.0602801979401677
0.7702272544515336
1.6341415622950333
-1.9836498677707275
-0.15338870151244088
-0.33609039929500595
-0.25034641151784953
-0.15227250398118705
0.4801958455892617
2.100547113580243
-0.5158345698010844
-0.8411195175130982
-0.685701401161961
-2.7621320129961235
1.0202659216806855
1.7774347538654487
-0.5092037575386245
-0.33937862695888527
0.49220996734161043
-0.9157073228229493
-1.2802442344185985
0.5230389806623118
-0.9281771410557677
0.6817054109236605
1.2189976851930455
0.40638641756498195
0.3727867490309439
1.1265004043547422
-0.1356611101352151
-0.11934388829869412
-0.9147141757316842
0.4040393496831705
1.7071038893840336
-1.1316535641048833
1.4304347182414843
0.7550054375347157
-0.8544758506423223
1.0239263023959293
-0.4262312149776089
0.7862828080938584
-0.7159441940870419
-0.7060357452978951
0.8588109062078477
1.3545113241530935
0.3434200171981994
1.78935657850201
-1.4438840886073459
0.8756950250420629
-0.24780058175654002
1.3164710350956006
1.2891748757737798
0.8442982465009542
-0.25795552199352334
-1.5553166642228244
0.42400326046668285
-1.0397996621116048
-0.3457677118006672
2.145626359956571
-1.4856397462215536
-1.1217182320815917
-0.9878005325924419
0.8130564416518785
0.2097942524779204
0.5869229449224721
-1.5028397738413573
1.41915562854174
-2.6660005395514794
1.137506503971461
0.7448083290545403
-0.05438426804166626
-2.458529784968705
-0.10528822295954525
2.2886115521178296
0.11206548968674877
0.055510142102047744
-0.24668194729945753
1.4552843117901726
-1.0523163076138005
0.8481610284896858
0.9517412038576163
-1.704399224578107
-0.4025274151136297
0.12364634796851921
1.6501962253462126
0.5297108536240228
0.05265232986309132
-1.1171199652088322
-0.13809040620892793
0.4520264290753397
0.7799921694200682
0.28395103771669594
-0.34654760883089686
-2.113010514306896
-0.6625356853745227
0.8555641113790594
-0.8020102444858507
1.4543008785069604
0.6206480140600937
0.12017928553746181
-0.8384994741092163
-0.045619886183064375
-0.9767961133972517
0.615048558065054
1.2955234013476733
2.1403139855374684
-0.23324042355347932
-0.6859783009305159
1.1320171014261022
-0.48123003520307306
-0.4055162519075591
0.41474445452253744
0.5681680448226648
0.9163004954819949
-2.137288189439708
-2.415038447488176
-2.453098524991373
-0.5140766395663308
-0.507138204006326
0.9288176928310204
-2.0728119054286966
-0.644676774251269
-0.31999477393757036
0.665948356825597
-0.9369043068161933
2.127568734517887
0.9078777380031956
-2.239401505085825
-1.6684269165071957
-0.1295908523061264
-0.7969452993097814
-0.39507221557253136
0.825603985671254
-1.1805634559760936
-0.8158549031199199
-0.7149685610764476
-1.493881565975118
-0.21258075363509735
-0.12138073470493227
-0.05874233735830411
-1.2788135323040357
-1.2056413035851397
1.0870244002567904
0.016974641171789092
0.3651407705362989
0.4897195769674809
-0.14081608303608054
-1.4014849471629676
-0.13054566159033226
1.7086133069628102
-1.463331275976355
-1.2909811214761893
0.04617702826674071
0.616838731933333
-0.5328514909951618
0.04106939153505241
-2.206166349081721
0.11358753183176866
2.0064070065183333
0.456473899160558
0.8695507817485125
0.8517486302385701
-0.3494222980767424
-2.720297771860796
-0.14822745473782453
-0.22304208460419883
1.5525158954347653
0.7838561913182174
0.5756796550748557
0.8911622245717032
-0.02448677566655368
0.1909815761480133
-1.2197096791954962
-0.23395770299017654
-0.30459830037989255
0.8411905246948892
-0.7503305275630232
0.04366334651373008
-0.28868449313794226
-0.41049252462259167
-1.1331609359191044
-0.19762996066060903
-0.5810427437106017
-1.796712723044977
0.09832137566218259
-0.15713987898915696
-0.7017003565322505
0.638614561845818
-0.7148005664729761
0.4026980113965507
-0.44492665365823875
0.05223623545591966
0.8714927910201863
-0.6291515171404889
1.5545440965360031
0.68410111573833
1.0702971865712139
0.7347508086898331
-0.26706446892651836
0.4731670758110835
-0.7845677109683864
-0.48170649475463534
0.6660072820242092
-0.5251426283036355
0.6152589073991728
1.3337498382047666
-0.8256542829790089
0.6866371448091043
0.3356741020981376
0.3284741064271528
0.8330015795038597
0.7752901799180492
0.28632137461340545
1.7360703469031757
0.6033938856854106
-1.0173229255227685
-1.3154196224078085
0.5347375779134957
0.6354534365725183
0.09229711596033224
0.05376273500484082
-0.3728703271950465
-0.5588696442231705
-0.690535075435012
-0.786412396090383
0.14090631037078372
-0.5076959880140629
-0.45131290702929117
0.4395800963964631
-0.46514795506562695
0.035132250074235045
-1.644997962834629
-1.432661159717229
-0.40711548928806884
-0.4103118581837601
0.91728724005988
0.340962046091232
-0.6526563435568044
-0.6547365544573343
0.2242183812747407
-0.3702132631242429
0.5927695843379253
-0.9321539075770346
-0.35707392459290344
-2.138672435727836
-3.3861831676051564
1.729032342856069
-1.929296574738653
0.5760101610488416
-0.7677344646760671
-0.14444170213647595
-0.43758078081005347
-1.9394160773951015
0.22080895076029552
1.1218143743759839
0.1361092292075269
-1.0740414056321272
-0.2395784845556965
0.48042070415222227
0.7674571070720043
-0.68298758401187
-1.667034980158275
-1.746902713882029
1.7211040689196164
0.4911923680666111
-0.3478194144731217
-0.9651077804783306
-0.572840889901521
-0.3927505754013105
-1.059322570620757
0.9118415093590984
-1.4765366958456416
0.17999465226028105
0.9083706146460717
0.31587489648156714
-0.37574547601555514
0.7853176380014019
-0.9236967879665744
0.5734222463446274
1.6763967410937632
-0.47231983066622435
0.374247099417671
0.3408025019971757
-0.5033853302962334
-0.12620929937930994
2.0864818358167128
-0.37009956960814466
-0.2252576555955736
-1.4931903534293278
0.9880589415957616
-0.13653792456801173
1.1924017028091296
-0.2153608007866157
-1.4401294053501024
-1.1792584897238854
-1.355498560031006
-0.2963198178361435
-0.6492361912179184
-1.3261306323291973
-0.7763652277401099
-0.8306977714429661
-0.46132560435375747
1.5570833091247083
-0.2524749963569327
-0.6431180865843251
-0.2314745387801844
-1.6478116201598232
-2.226350394734453
0.3130259074808765
-0.4657314537128404
-0.31024172472860273
-0.3582078097749888
-1.0861787367475075
-1.5668350914349767
1.0251723330183995
1.3828364174177938
0.22600110702427043
-1.2950169863882313
1.4601921410453242
-0.19401495729831708
0.15569699213806615
0.10251136434637265
-0.25619612814863574
0.7460236868381035
-0.666495288325066
-0.21792743198068282
-0.6696864092002321
-0.6261129638522085
0.2132859184515324
0.6284775641734649
-0.056444935886128214
0.13297046704113988
2.502265904711263
0.5154707109913432
-0.09815569462431604
-0.2585519683325191
-1.117451360416673
-1.136340637854258
1.5155359290656878
1.2557456602648938
1.1023268744866659
-2.2604143742560976
0.2521271875264024
0.8085996784552868
-0.9243692987761064
0.46406518905182836
-1.3123697560429337
0.8392105316173234
0.3287680062648845
0.881720446917751
-1.2187559346699788
-0.45493042885610135
0.31191298902878756
0.2941824995575908
-0.7644719889648683
-0.46542759925384697
1.5125366693660125
-0.5960324478146884
-0.2658271482406862
0.18705599271535536
0.6405834370255862
-0.1675087514207876
0.04744149275548339
0.659345415581453
0.34404569454462514
0.2262777884275395
0.18243429406927075
0.7941414612502221
-0.5533377801896531
-0.27837716511717286
-0.18181736909255958
0.8353390443463301
1.20554978105276
0.3483739307667516
1.935223691248019
0.5678476405197816
0.4035979668950381
-0.3590726972909171
-0.21577297868748743
0.272447470678887
1.9212257789175957
0.8157146358143098
0.255474294341611
-0.9957473687054504
-0.3420369843249313
-0.8546500350955583
-0.8223864048140028
0.4012565138319329
0.4762273538434806
0.5132193792076575
0.041180030899378675
1.724924396870686
-0.8178464489987981
0.21220809499610668
1.1478014441374997
-1.2796615885684162
-1.2086787138227648
-1.5200779434266813
-0.344076191650659
-0.9564922783038377
0.8752152783528405
-0.8445346136054365
-0.8942164965048763
2.9642582377136626
1.0828760710190486
0.4825628551931188
0.8469918615854883
0.5377861573537489
-1.6772651444581443
0.22849937186365452
0.6844862422751374
2.460531503507336
-0.2957466389237777
0.43121904814282314
0.8895077932954908
-1.1911182319718636
0.7139795475116553
-1.1522564675354041
1.3101300891250278
1.068384491212513
0.20491053327877648
1.2743460684265642
-0.4094269779513386
0.26372740359682456
-0.20634101461495608
-1.6366998170524627
-0.9995634441565776
-1.8534410987785983
-0.10898376160110015
1.817710127925462
-0.42868596179327384
-0.8841676376194326
-0.41876899240428994
0.9360867467127395
1.5861085056983395
0.8853601721855886
-0.017923745472823834
-1.0102651239077172
0.21353991112240173
0.6509718923966707
-1.7102833347102064
-1.937808944982183
-0.102557894926011
0.7725734624838111
-0.40637103554007953
0.8356742809115715
0.01619524772391243
-0.08866079748401631
-0.012236155720062527
1.5379159241437292
-1.5468239875095071
-0.7368966377171159
-1.2683464204120838
0.402437410737419
2.1968774459013725
0.31892075851956164
-0.7355924987523307
-0.43829421890888043
0.5798435671090006
-0.3183141226464442
0.298287305064157
-0.12728841069235347
-0.06944912973320394
-1.6842633828403186
0.7665698134703851
-1.1194458320669551
1.9924019505585833
-0.371417413167988
0.09481046431613976
0.5711617082157425
0.44706403602311795
0.10004284422113695
-0.9205308416855102
0.20083263247409675
0.21815558639689692
-0.5966138574647593
0.16277403270460133
0.14783988105724466
-0.7388944912291121
-0.12925638887800686
-0.21064607317664014
-0.20865793677318073
-1.4603163078638968
1.099978039879963
0.03304851570866172
0.6315942128528306
0.04555184152642952
1.4671596838797623
0.1149254285839271
0.7346989276076327
0.5441916797186249
0.5285529728154813
0.40328287776737254
1.8008613370811388
0.19647396811411327
-0.2854266088385314
-0.25496048755140993
0.00497540160845248
-0.6693695619005019
0.6528737175503891
-0.8606075861722469
-0.2572197499263381
-0.6269576457022611
1.6802479713374725
-0.9030687181924267
-0.3885891184572723
-0.30575009165086015
-0.7388069949378021
-0.12846540232086334
1.1291084166974659
-0.4051906184133218
-0.9439279441028238
-2.268953137765535
-0.8554834961776259
-1.5019040388719231
1.1010049751753086
-1.0440813655022756
-0.2990450031583559
1.078870358376529
1.3728173174206977
-0.10370361353953425
-0.7976463289033595
1.6122975600230365
0.8954037103272895
-0.3313633290108088
-0.5435358024145535
0.6765280694481386
-0.9927685810263175
0.4881348397346139
-0.20350613206880355
-0.45743302178910206
0.21769100842546052
0.8201702639663401
0.6184259227279895
-0.2933783097900571
1.018441408568563
0.8024754712327635
-0.9485430778955708
-0.3788084826298447
1.0909245791564266
0.6568150771468173
0.805740822238908
2.440976859150672
1.1073762363680157
1.422237956515277
0.34407765647049365
1.8658609321727933
0.5514807499839858
-0.411657289579734
-0.5595758854469131
-1.5360101369588528
0.2651721316555156
0.24419872939898282
-0.11800927162733131
1.0867306382449762
1.1331109779623108
1.0243928563978173
-1.2962068800227762
0.5928000833586377
-0.03776065167821284
1.0063149630362875
0.7358085961314021
-0.3158997550743686
1.786194081762579
1.0864209849024327
0.606206981162208
-0.31502965264965477
-1.821657343966678
1.1545909405831107
-1.5047063585225682
0.29653426065071253
-0.18030746986020343
-0.10306675199857562
0.2951180023182608
0.26477452596907486
-0.14556937298379935
-1.1048183012668586
0.3488140104306789
-1.6556394257975626
1.2628609634960584
0.4887158996489457
2.2940936726238745
0.9204646078847493
-1.0787555213436795
0.05376522574320672
1.4676446212685954
-1.387608558051917
-0.905634585946359
-0.7282178534811955
-0.9371371469496506
-1.5157136801923838
0.4379889504770054
-0.5059983395833711
1.2293684040165322
-0.4278929348144499
0.49032689575526817
0.5887649401245333
1.5064170621955661
-0.35630586074368575
-0.2531516987180169
0.5454897493080842
-0.24982661612740617
2.147569728495576
-1.0546089606744498
1.3233151217963717
0.7853167179055749
-0.8036215516022802
-1.4961362470068897
1.22055804234304
0.9461794290644233
-0.6505060754790777
-0.07739335919270887
1.6524935187037695
0.360069865853943
0.9787104372482736
0.11602588526621807
-1.5194174450048301
-0.4691203590078658
0.1404908344951727
-0.4401745306099429
0.112303165747754
0.12338374199305253
-0.04139497943074993
-0.04287797763413361
0.5385829404822877
0.025468651473724284
0.3813149385037529
-1.1585263858833055
-0.01647467408616005
-1.2512232475329188
-1.6401690783626732
-2.159420329683442
0.0632540534904859
-0.11688500991023214
2.231538778207144
0.6874111979982124
-0.10782337827118235
1.8704843630284178
-1.26742471192752
-0.9788090519346718
-1.0195673594325545
0.9929112650595634
-1.572479844245552
0.6793999228433963
-0.6126595785965647
1.0232882823923544
-1.6145960349161124
0.4146427875899414
-2.723020547548042
-0.6757583675607004
0.7964173051997967
0.7755408971466043
-0.5105656190273157
0.4840016967988983
-0.5383115553893518
0.27329063083806604
0.5625139794125175
-0.12646525090808453
0.4356597484292294
-0.6001276676761865
0.664493547658336
1.4638736974133568
0.3200390333683203
-0.5786499871395464
0.4929945802978491
-0.030906390599950484
0.570014219746295
-1.5529620573567275
0.9555788150412826
0.6416043335113479
-0.5359556574446677
-0.17261384772595145
-1.2809323991607884
-0.7230428976335869
1.659795039929756
-0.6427144683209756
1.8116109976580668
1.218619059338948
0.3549040075045103
0.6438562052633546
-2.1612259150646866
-1.9148994853542027
-2.539362379106863
1.6302978487199191
-1.7601586895694785
0.37684418037612194
-0.583071960009206
-1.2217436815915235
-1.118171637870875
-0.29826308221039455
1.4817183650485155
-0.5482488249397285
-0.6842218688756557
0.33665463273148993
-0.535573747399719
-0.1399533338377236
-0.6725345644806854
-0.09176806604589803
-0.12635677325658307
-0.21363773898063085
0.14530460886040264
-0.9765098696765198
0.2662403267817661
-0.7373971405749518
-0.9843921534732756
0.8512972074740361
-1.0927853631572442
1.0779309891593483
-0.7928109069281285
0.18416311944927113
-1.3672778928975584
0.056696599425600396
0.20921496835929634
1.850749657707256
0.702380575918868
1.3504459527851358
-0.4110869838278497
1.3685681150007099
1.0686827156529364
2.531576506165476
1.7071715593801586
-0.9446715828118828
0.46412163171710996
0.9538181047228922
-1.2509709238087494
-1.3645114275859627
1.3282310114452787
-0.6229258607009792
0.23837403417549613
0.6307210611882775
-0.16723412840057233
0.36282555359240454
1.3186662214742713
0.3259963828310604
-0.6468879497366831
1.2602730716517747
-0.9386980548780471
-0.8329364969255673
-0.6150695156545358
0.8456151477998282
0.0745258105228585
-0.8619447764060248
-0.46779545190187394
0.8004491970150469
0.38544030781831495
1.1620130312205805
-1.3569203191761958
-0.0731875890938908
-0.8676889827205134
0.6833445390032973
0.506507048960045
0.314286049017002
-0.4687545043561544
-1.2844604800941617
-2.0766432440919758
-0.8396466596285226
-1.0939127834112743
-1.2269506727563688
-1.1252867134967321
0.5068853945065858
0.9604344347190577
0.5695741684486006
0.9713908773733533
-0.23550018044453358
0.4620792553368008
-0.3933588044982908
-1.1627432676489695
0.719297430367597
-0.25697286745277714
-0.916265357341789
-1.3113106785111766
2.095589658263394
-0.41911080610572754
-1.9572970130479794
1.3193579383414893
1.378055807829689
-0.5285865976869026
0.8621220068463522
-0.26083912539632326
0.7383073530295039
-1.359500330947707
1.3999784911658737
-1.140888517097354
1.0631013492005388
0.8448063433131107
-0.589284967878308
0.06262136649881254
1.258477229832948
-0.014104209883862405
0.28436257709746904
-0.7676124356646882
-0.14391558931981144
-2.196326648080565
-0.05190843285033056
-2.371016375483466
1.0998428432077483
-0.026180677995924172
-0.3240646984904502
-0.6934492416248564
-0.7151160578252186
0.39806376913516145
0.968172584696189
0.039998731389686834
-1.9981431409235666
1.9272232627332597
0.9289959054557231
1.431553298269658
0.6287666221663344
0.9366461837550593
0.6119163481796115
0.5453569002559632
-0.5004539000465965
0.31215618597063294
0.9328653242774863
-1.1357303261789342
0.44592859008272956
1.1482450468141652
0.6187660770328459
-0.008532383567538295
-0.25488535634007214
-0.39897380050749104
-0.5062239903888773
-0.39442202825990164
-0.9755933053669988
2.518030024971995
0.28249900578101417
-1.508598118901379
-0.3607331476331601
-0.7355978191306384
-1.0170164364647167
-1.5495895081872522
0.372519968909596
-0.13266947130251727
-0.08140629297145646
-0.4323052023954913
0.3578865296693182
0.796788268720909
0.057872954744696795
0.5901148238801981
-0.358020976947296
-2.06401563994169
-1.0951279967994805
-1.4575866299800093
0.2004446536934844
0.08639809198828129
-0.3683110579880422
-0.09922766878014296
0.27571916660190826
0.1517298693693432
0.7281570242398334
2.5769000950966774
0.8013948453590001
-0.18411726743760415
0.3836868406762156
-0.8418954562427614
0.589471535180751
-0.6262853468360112
0.6850666459728951
-1.1043210521172417
-0.10233640932198794
-0.6622251786525712
0.601876257853198
-0.7440416010283262
-0.5475586284574976
0.4521889273221829
1.4790923260326365
-0.750439577499429
1.4149416138021351
0.7552915732329749
0.9013556888198732
0.15674293697742847
1.1383937133585054
1.154271583876976
1.1286189540350604
-0.10973664733112877
0.7235227624324583
0.7851599635015402
-0.7673293425107017
-0.8812593338460223
-0.9898997263460916
1.460379141810918
0.6229029428549433
0.33153828337075636
1.2814229227352223
1.3710287723368761
1.6167472641179255
0.696195108239749
0.40562614456849444
0.8306230014544125
-1.2360168749834652
0.15632315448578274
-0.6185896427126643
-1.1853710887697817
1.0247702588706156
-0.05468947641151855
-1.0227932146293293
-2.3492374243540914
0.07997176266337044
-0.2705656630869242
0.30616496509399677
0.015620286141823881
0.3708027180124389
-0.028237863053377138
-1.8178494777857965
0.19459326144249425
0.8969246021215358
2.601449491850337
-1.596465327878695
-0.7223109367379424
-1.118615359731165
0.08812810610754285
0.9651439252299588
-0.2781645683505373
0.11468840832217575
0.3202344584488732
-0.08849710571970763
0.6297424230298629
0.9331016234015372
0.13695316713336791
0.2536037777457422
-0.3498045993409392
-0.21711133800615767
-0.40179745945282175
0.5030838059684193
0.7476269490519478
0.09534055975678572
-1.1965367426499052
0.5894860286968231
-0.042494533045451366
1.853376579037457
-1.3858613990313917
1.3582684395834381
1.6608950075024393
0.416087013755533
-0.10739472067675303
0.866699569263124
0.9465616534020623
-0.04733112790216516
-2.9661799446078847
1.386074066578241
-1.6984759805962495
-0.5222939247327002
-0.9682440495582489
1.4731120591747178
0.4401810908788919
0.7794945497339985
0.9292968084618366
3.3777174094269604
-1.837733991914651
-0.5556401838952196
-1.917478838127876
0.07893838799937967
0.31948959159719614
1.5295531412782026
-0.8688962341079556
1.7225058531414508
-1.5230383963802143
0.8188111776795566
1.253403119649296
0.42681068567025354
-0.05830043585105259
0.151543971886587
-0.5131452753530255
1.7279407516552103
-1.440162205332292
1.5225735095066892
-0.724534804078993
-1.19613039724356
0.9561505113174206
0.6921774969147091
-1.0034891331695783
0.008216257542267836
0.16211732849596308
-0.5753090503782535
0.6137049067756638
-0.10074278872422911
-0.35671770692264265
-1.213939759407455
0.6262186082222844
0.38283443229100234
-0.6277571008523559
-0.12951035690061752
-0.29090101079898667
-0.03166158471990872
1.0120423682245427
-1.912517901652409
-0.5707519892013161
2.1310260670389884
1.7049403994393246
0.6960467205202658
-0.5542643447475827
-0.8613631044107528
-0.2785273749924012
0.18569897584383085
-0.8132657068250503
-0.5605730282335529
-0.6098675002396209
-2.997567963668524
0.3257865132521318
-0.46885088022822397
1.1702373760429816
1.10472614185449
0.36840110851759705
0.1309121520360185
-0.699370801255206
0.037252510768929326
-0.385048743841786
-0.8168882254891837
0.05407439104336705
0.38318708181318223
1.1455875656702683
0.27345791251351964
0.8135798091730121
-1.1329713783011477
-0.489428948856394
0.8291738484149087
0.9294795388796606
0.9272783841798827
-0.6478126042746877
0.3844762217930203
0.3559318895222176
-1.231351115068439
-0.4407071451974585
2.275442224275382
-0.2741752371174583
0.6269083977901228
-0.4270763653063736
0.09404723223655045
-0.8370340530985544
-1.0201217570833832
0.9774493796044117
1.6083155350206206
0.6049306566307506
0.004210463427989095
0.18823394362959955
2.165127797277283
-0.29935718455445404
0.2207977121060333
0.17070149840446025
-1.3945951196600685
-1.3154891736451366
-0.31030614473666324
1.664215574379204
2.564994991472933
-0.5086457626490921
-0.2591231608452381
0.15463647923749335
-0.015797624673126988
1.6104209441025297
-1.0620869594168667
1.0025739347914453
-0.002596448885923126
-0.09812296372396141
-0.8985780853258758
3.244646747369675
1.1391819047134966
-1.2097051090468796
-0.5709258264587891
-0.44683336174722255
0.20592007088792022
0.17992115559606303
-1.617243543826162
-1.5133699726072527
-1.8891281509795654
-0.3486829422818891
-0.8868745009004325
1.6284987488028384
-1.1239043762842333
1.1881352551754412
-1.0480983937158883
-0.35520690881501116
-1.853686059802715
-0.2550029585207906
-0.3046690192435198
-0.8830498912691991
0.0020327405966407454
0.709665527472949
-1.4012214550090512
1.8576814139110431
0.37730429366920254
-0.7210923291915653
-2.189648307085451
1.4813165062080504
0.3243324117533926
-0.4453327748287916
-0.08079740940083881
1.6286089609849286
-0.6304818406846104
-0.04638892812543643
0.07330328291120793
-0.5991921400116769
0.9092529074475376
2.0524098090615257
-1.811123632787915
-0.09258145443688692
1.2028157212818056
0.9557333997737169
0.42132057998432887
-1.2402137913658098
0.4090453846175511
0.8700726901261618
0.9651949265726376
0.8716558152371582
-0.44794552429213413
0.05360116069130545
-0.8645174303902674
0.5105288558474299
-0.8045144771782429
0.1778397398136812
-0.5732729166484591
0.8388172863597272
0.9837191246528837
0.17362596731259736
-1.311650665435261
-1.9741484123515407
-0.41712715052703614
1.7462765678279704
1.1136697457379015
0.5717190132062651
-0.3795986737689779
1.47790452539938
-0.08049441589247495
-2.775592117735528
-1.250565499589655
0.9448651358876937
2.684938694105516
0.21990798250663776
-0.5372803963166131
1.6232123262133382
0.5847809299453923
0.4844323076759396
1.9777482251160041
0.8513605138270042
-2.3645465266185313
-1.3471177450404375
-0.8909464416354641
0.9657110307376334
0.13852461865039936
2.5977018682224595
-0.529111475016534
0.6292897290277198
-1.053301313087821
-0.5159532157969604
-0.48583452790043363
-0.5817288273210601
-0.657493899888283
-0.24437073960065403
0.10584627623766996
-0.26511417064074333
0.08721749463403275
-0.9103148881592427
-0.8372827723012062
0.19842991631553958
-1.444206159576186
-1.6553037751530721
-2.05503408896338
1.0887507608637497
-0.5946406119651886
0.10455609087401442
-0.12522589555028052
-1.1502196119527095
-0.13615011292543827
-1.9281775386827562
1.7307405261723516
-0.5235723274951706
1.6909643018834328
-1.1356385716731445
-0.2999277441343395
1.1411163668244264
0.5992191808965702
-0.7275678864630788
0.045137407205703854
-1.25478687379401
-2.016802639208783
0.4711402178150949
1.2066712982007934
-1.6633407705959329
0.6583816460497368
-1.178966100076487
-0.18198176430446453
-0.21334926216939354
-0.8705882593997378
-0.42492930268157353
-0.4447198266735641
-1.4183456737713966
1.2097450785808468
-0.6411078674466226
-1.0520495311216564
0.37735008990009883
-0.9510712550732561
-0.47080398057722067
-0.34159525243044386
-1.621704237578726
1.2077603147824432
1.2546146371412081
-1.0351811169608842
-0.45534648332645594
-1.2742636237397191
0.9685093845677666
1.2084441972835545
-0.38863987168308944
-0.1882800664340921
1.2531204708468624
-0.8432181164805947
-0.7680120985135597
0.8945171299221453
-0.16428790333775542
-0.15200155001159082
-0.7547913681105035
-0.43166248735632473
-0.38236379562738493
0.849792576795721
1.2863241350931678
0.9969594690749584
1.3375319557923935
0.4792660988472885
-1.808883813826311
0.018369583551359276
-0.3139872581192859
0.5217400044135828
-0.32372642517878236
-1.4408828331336174
-0.9135833304961778
0.553641319639958
-1.2248429603074145
-1.1914206423456741
-1.157922097314115
0.21145419857857264
0.6490065222119676
-0.4300473885492414
-0.07370820308902379
-1.2709080854644983
-0.6103012142778693
-1.0132941344646298
-0.638847813169676
0.7095420493811617
-0.06502670483132926
0.09277486017313666
-0.3561521322031711
-1.5974193241183927
-0.7108469730929371
-1.0058963339445008
0.9941097567220344
-0.005517476522301999
0.17892908571124416
0.8428483244442412
-0.512546495666587
1.8905120077672857
-1.2198515945942041
-1.5883199159907575
-0.9484084233104251
0.8156331963874545
1.630605610660856
-1.164233625532369
0.031957371044169985
-0.9047253678749968
-0.2971922891634409
-0.4905281295207579
1.8026118609818509
0.8955087914068457
1.6817474778115928
0.24309785262357111
0.3669946037033608
1.2548089070276611
0.3725583176351049
0.634965133341481
-0.4567611475415854
1.1604010506569122
0.3693784030261076
0.06915120735528266
0.7817351142452529
1.3482976867250052
0.4367400695174846
1.7120466509509278
-0.25561366202597036
-0.5173051660933674
0.49757202028892394
0.6189913572815519
-0.4635357798397143
1.286704255873213
1.7610421371185652
-1.2778948841699886
-1.1195180126575561
-0.5740895609178219
0.6771636603625145
-1.2177778173899731
-0.4124627080606142
0.8753522472170949
1.6748027623887105
0.29830115592174744
-0.5009823555696999
0.18994441062239217
-0.3423253679050218
0.33609017450443207
-1.383292473340959
1.0935964174923647
0.5229849477865485
-1.3093676335233344
-0.8700110284285029
0.12999116374366104
-0.6654451829134729
0.42576678611924834
-1.3319883188091222
-1.6494267110100462
-0.9080560019233039
0.7085576391555349
-0.30271273082992023
-2.1517414167722198
2.159678011473682
0.40298193567502133
0.6783145403761562
-0.9660372270390868
0.23394605816265535
0.27872788622302425
0.6152817253204046
-0.8224548887584181
-0.7143450108017281
0.8035024813366664
0.9778299655881555
-1.5551181565350372
-1.349674134215148
-0.7603683091562882
-0.6170704538920028
-0.29400214837118255
-0.4679243196740396
0.9288764481726153
-0.8739897405855606
-0.18863644329185866
-0.39539124615249677
-0.5272837024686107
0.23086094703459825
-1.6079042829965295
0.5709218585886445
-1.1080839911596856
-1.9209220534499798
-0.45878752608332335
1.6798967488014445
-0.35040428677884305
-0.6292155163335813
0.281549303564413
-1.0177447092487508
0.465443505819323
0.042989910532346264
-0.297338516387923
0.20740718613860035
0.44662074131274326
1.0228994198542884
0.6643189528078299
1.0854405768424829
0.5366112670325863
1.8150049921989673
-2.044770910186541
0.762294532978819
-0.5749185683980866
0.6045333026978099
1.078355466711813
0.7454109112332554
-0.2884873248268283
-1.3974347584580593
0.8040687373362637
-1.6614312154081838
-0.19835425203849028
-0.385052224777918
0.9997585338989191
0.5024779845654805
-0.6230674820106409
0.13892645029068307
-1.6204962004065144
1.935936658478793
0.2637247583502094
0.43003687386851996
-1.6735597974886591
1.096223113738272
1.9143452174640434
0.5158636485897892
1.2346015377786286
-0.4695816073088889
-1.397489240182324
0.802592411878331
2.137675067600191
0.3432857274524732
-0.26262833729329377
0.27779917118180036
0.796344917083298
0.060077670974356345
-0.01769448219035736
1.8967551498079098
0.11519756180385962
0.7583708694748205
-0.943730770526417
0.42967588422510244
1.313473916867036
1.0250084778332103
-0.23359228670754964
-0.05868920436773218
-1.7426398024160603
2.0104085277694317
-1.0475891407148414
-0.4353199018478177
-0.33680872839558423
1.0281657409604772
0.3564303663723268
0.4474575502174527
1.0613358411692435
1.088311029443243
0.8448026333114207
0.030569638452974484
-1.112522258564896
0.9337555980569986
1.1354151143103253
-0.5739146417950935
-0.6568129144153573
-1.2881821422485984
1.7836820983564037
0.7190540138203066
0.6144586660707728
1.0869256155527818
-1.3184628647485226
0.6688936867239844
1.1309741995789102
-0.8546937755999874
0.47251490835196375
-0.12489165253475727
0.7701793717249763
-1.329273515167853
0.09210862980744279
2.2857986675136357
-0.5310019913009968
-0.1174834570924029
0.3510142779301642
-0.6668765127080878
1.4000828276340909
-0.10091764394582318
-0.2179100911684617
0.884165016287918
1.1703048408541026
-0.9944610556958108
-0.35921719138113956
-1.8615394330445785
-0.16563338402517205
0.7767887032567252
2.251452952415581
-1.0272712536528055
-0.14203367556164345
-0.059230991129414066
0.580526258795804
0.6732038353864458
0.2884731786013168
-0.5297564865384897
0.13118881684027722
0.9350591954383334
0.742678493779736
1.7295047314824903
0.7283526932115457
1.3577719796190086
-1.9322906530092248
-0.06340496812155001
1.0823118645164822
1.1373417610435026
-0.5021095972040663
-0.48912236380592355
-0.025294521463141092
1.575415229690273
-1.9271551100995006
-0.8722626056765356
-0.6745572005005462
-1.926056838814378
-0.8047630108787533
-1.3149154325452346
0.25463551740132295
-1.0035030302158492
-0.40895082671324007
-0.9736838920005677
-1.4367785692234463
-1.631496553574179
-2.1885909560087606
1.474877901182843
1.8843643441433808
-0.019524429183345675
0.739744911234799
0.15433475920820763
-2.1026329582397385
-1.6139592510784775
0.49945045391080956
-0.13698611516923825
-0.7168639263585765
0.15907816538311575
0.5753611544813766
0.7604623960672499
0.12034828588802914
1.6051449368114366
1.16491996371519
-0.5941963133706503
-1.2449569289512865
-2.1648923557045103
0.9284508556141349
0.65151137026606
0.28143805889286005
1.0393137621913207
0.7575205349831847
2.0399643762211737
1.049724672092861
0.8297129636874591
1.6742184883320692
-2.1633013300321435
-1.5785337904084649
0.11267761012100967
-1.22685576193587
0.5699246336711554
0.8124031725107581
-1.751672769793062
0.5815491825429306
2.3394752899157334
1.6858794778955073
-0.8420693441448623
1.4262754758960592
1.9279262717730918
1.7626839540207315
-1.2916166656349657
-0.11729487231964343
0.555053575256549
-0.6878186556042003
0.9693836503791843
0.6236642011959262
0.5349797236701439
3.0001235157640913
-1.1551302528645098
-0.1274297738622727
-1.3221100577842904
-1.569587460538098
1.5988268497800309
-1.028488815678002
-0.6823274861725869
-0.7876476130205128
-1.3108799483036824
-0.29888803950277326
-0.3879286829968788
-1.7495199805513355
0.13336569029974654
-0.26857417067371286
-0.09873628506850188
-0.592632430450908
-1.0882444155244342
0.9472890522996872
-0.9275288498618963
-0.756986246297424
0.2940175776357051
-0.7052453713573122
-1.7271209128871308
-0.9690247282431654
-0.13931176572335852
-0.08319099919183948
0.8448401404246414
1.5140073702316512
-0.45242880357049914
0.46314394521430147
-1.7154175945922574
-1.8790572596571014
0.38028152466572734
-0.5321794597816276
0.007901040041791648
0.05634901116802673
-0.4957479629851667
0.29068726287128976
1.3139257349735303
0.6014214646931336
0.17484389718099222
0.6996602530436493
-0.10153710743138661
-1.066647510201472
0.2555035089541337
0.3338212976784435
-0.12753839003034945
-0.9260581539531125
1.2130562476063944
-1.0154168875236913
-0.4583773736784267
-0.33027143970348877
0.26861460492141914
-1.5063864311091881
0.8023128393791336
-0.5864497426646462
-0.4932024218661655
-1.3794154343365985
-1.140840385615938
0.9519444773901321
-1.0246145712404267
-0.7656475556923144
0.011798922791114918
1.636081703577252
0.11190262306398711
-0.5814636908664055
-0.21947853093850406
-0.5397718103835666
-0.0450320959026868
-0.07822480986618274
1.1052370515432999
-1.3254619299914319
-0.8897805179864328
0.1851007101809552
0.8326782377354097
0.786118971687856
0.241287739564912
0.9266475126522382
-0.7019370286218398
-1.0201721764886473
0.18064634421657122
0.06621459598518593
-1.9530457828916565
-0.7044034827428689
-0.1949049989968775
0.4705978828464847
1.217458379923615
0.4511783348221553
0.4154363689394955
1.3194994846205963
-0.8185192797319658
1.2246262015387217
-0.58167252638111
-0.8288524193504504
1.3725591970356201
-1.4266544828397347
0.08276949149880318
0.7123531229090124
2.5102557592406636
1.1742894102793888
-0.09053457939383143
0.7402924695693502
0.9413665597391165
-0.5879623026299036
0.670973610781806
-1.6060935443339783
2.0375848497055387
2.222388192709083
0.17564130154726573
0.6842269165056103
1.785311338971762
-0.3884685177817451
0.3402772072971551
1.8804182997202252
2.2077598864630747
0.39329001760223714
-0.9389047273669086
0.1701221478965555
-0.3412757260263112
0.11794923882770332
0.9645681946331536
1.629415487330471
-0.12635309473428502
0.4655847061834465
0.5041868792073827
-1.352741964200266
-0.5703643895001055
-0.7347788820887359
2.2922516076941495
-0.6750309641046822
0.9177012953978613
0.7853756314226212
0.5250695931321137
-0.11696137536952371
0.06013334022943006
-0.13191861747695635
-1.077405490572018
-0.7534619320484491
1.11480185846322
0.9054391812367623
-0.6977592423018099
0.922216497910547
0.47832628964237844
-1.0018668174766132
2.1591613288196614
0.5948251356740544
-0.008921864221210782
-1.8412098371480343
0.46071010432310566
0.14305204061031981
0.6293926552131375
-0.0042063958545394825
-2.1455572451216907
2.53375817788834
-0.20072816143915895
1.2832548039587652
0.050250915033302396
-0.2121344904239008
-1.9070851789712078
0.6007624307643384
0.6897933722726372
0.14665800888258174
-0.6232797556396623
0.8376322985252792
0.0371891003438571
-0.027618327899750876
0.9245767422323725
0.6059452145621299
-0.7434786322198805
1.7976419895191929
0.6122618982625812
-0.3428627277661152
0.6391035575105046
-0.47058871126746765
0.4060323765724637
2.7704421069577205
-0.5092420953128162
-0.46905456539806945
-0.3120662767345946
-0.37219485602268165
-1.5318230048750934
1.3403559495153277
1.9851225684618057
-0.7935963547685787
0.31711033830448004
-1.3043306785434683
-0.6113861370207861
0.2014768975968893
0.25722781212775225
0.39948769505660425
0.3441088386558633
0.5223006737341511
0.9083862550548385
-0.46293812609345353
-0.09038968339822706
-1.2880246421977917
0.06398653744500428
-0.20335033941410352
0.6793995722041505
-0.6581161368162144
0.8153006340473903
-0.5508277893071107
0.295924966792908
-0.020842542966209347
-0.15085454136118712
0.7781564337907688
1.5405500646961614
1.2489943202505345
0.5894192153075497
-0.9556141818253185
1.5562717922270601
0.6498507591325569
0.2585738983274743
0.2629334748049248
1.7216851306735117
-0.27308013533050746
-0.1400899303395954
1.316067652054563
0.5949406666078375
-0.8366695331257773
-1.8855408662719113
-1.51593838749224
1.208889468777606
-0.8906953612357666
0.2836044104030719
-1.209390240948155
0.1465572705518598
-1.1671407269382312
-1.9750997345681043
0.8334552866491713
0.7362114948450605
1.3296481183867583
0.05106552333729823
0.5292928151634894
0.04490695494516671
0.7052447093462921
0.44763071551862277
0.06603195461842881
0.6918645630952064
2.265710292763732
-0.20463423953252394
-0.015263326298940177
0.8041766325333515
0.32238773360733636
-0.7084378108448379
0.5246052404117582
0.45431159434472873
-0.22662200113065611
0.2658865233348174
1.624947656368161
-0.5758838945573299
-2.592838925073558
-0.1365097283541398
-0.7015241370188179
-1.2238967076960887
-0.1920978514977572
-0.11919993208386227
-0.261496175376162
-1.9247520234881392
-0.49305720015513854
-1.9726576265848208
-0.2243090159003196
0.6501737857537209
0.4967856055161159
-0.04566178673879694
0.3481678184046
0.5903881014384806
-0.8073020139610668
-0.17048772628212286
0.782965807714084
-2.489888887435418
0.10201954359245859
0.4526539989539699
0.3468646096813281
1.2634815508598265
-0.13817399978205458
-0.12205357228560834
0.6326533906809506
-0.7267749775618183
-0.3741767632171682
1.5413391761873698
0.5961502962164971
-0.2862997220560384
0.5424297266738033
-1.683225085154724
0.24128479850149356
1.1403928363643645
-2.621939035509748
1.5495421115686794
-0.13661701267390147
-0.3577341283965197
0.7805581141296044
0.6059556151608424
-0.12034514411165151
0.45567689738291306
-0.907489495970896
0.8792307585591962
0.15707525596133745
0.6865699530658234
2.1929260432361803
-0.08833746727224183
-0.9054815738646935
-0.5827936548913722
-2.62273995699635
-1.417983900242375
2.4529478699209704
-1.9553198804043341
-1.037327199600451
0.7316155730943973
-0.6304174363542446
-0.3231384811901515
-0.9199421544656587
0.7117930992119149
-0.7931529993836599
-0.8750451672126422
0.38997025603574303
-0.02926068486016713
-0.22913851948347003
-1.4345814455204995
-1.7705169024010365
0.5888368654517299
0.15848974856604017
-0.03436804720990903
-0.43039976735862734
-1.8309862764039848
-0.7893738863146759
0.6639268610695376
1.394691695451557
-0.033773280399539043
0.8573174739500096
0.4220077361633179
0.22437335034719577
-1.3282628244598624
0.3235419366639293
1.3105941557746559
1.082301946345426
0.03467390461123111
0.26658089442902394
-2.5691332056863376
1.0188635535180166
-0.93790649330336
-0.5119907319455408
-0.06928566222602993
0.797127970697107
0.34665039726476804
0.5727574505064038
-1.676943794964666
0.47414704254702256
-0.797066598490165
1.2295285416745958
-0.08639878922312225
-1.1415341104445649
0.11459051385997898
-1.4705195551094483
2.605522191189704
0.41746529486601497
0.8514756765393957
2.282483136092547
0.6688836186626204
-0.8986678079581275
-1.7008518547732694
-0.6240640721006436
-0.46518468102347504
0.09163994954546809
-0.9777351323109348
0.5095423219225711
-0.8834370971735983
0.1371560040421354
0.39220847839313455
1.6351920254785488
-1.124622125996622
-0.37408640984831915
0.0490656854076044
-1.4296871968634013
0.2660280702051293
-1.0772392978067393
-1.4209833373503267
-0.22212302527574032
1.160733960141992
-0.19282757851852253
-0.7975277371311792
-0.20693571034664776
-1.8753249266446606
0.40774024881584214
0.3385746889315276
0.2791533554842845
-1.1466500928322632
-0.5516010265936323
1.6477942899683247
-0.667500681395279
0.45462887887328646
0.12449437301825787
-0.10207919078719586
0.8768394568522045
-1.0414732953839403
1.9478701301627606
1.0017056606467158
0.637838987840695
0.5810031775628082
0.3805048871663261
-0.65018064692726
-0.05941125716020771
0.273954085727886
1.1971735771497058
0.48834466204336335
0.2593694084204896
-0.41581736341756453
1.2702007378942826
0.6831942786275664
-0.5380175348204888
-0.29266041916985996
-2.24535983021764
0.5105935733454536
-0.48462616606347453
1.5091032596012868
0.374475344695276
-0.3094755902584959
1.1196882407827777
-1.7991495781596425
0.18431723456929716
0.2515119378323656
0.316116798654504
0.7749153377332165
0.9095854477577544
-1.139646543567292
-0.1645996710782812
0.666673040335307
-0.7450071000219348
-0.011249374403038505
-0.07848354351033339
-0.54360637028034
0.8171919421138557
-0.7047435959699412
1.2911089736086134
-1.7220436121177958
1.7292673141319417
1.2900713194465434
0.42948379641981876
-0.48618975059959474
0.23317726995918853
2.483846624047289
-0.6376903049385966
-1.7212789110177826
0.2993942521913749
0.13662318671174914
0.6130936606471927
0.37138521766163185
0.14114370136481136
-1.0997654301948525
-1.1072844297377735
0.09315550724132347
-0.015937986680879968
0.16687591928015588
1.4271677288475109
-0.12212720361427906
-1.10285598538413
1.669568333506079
-1.9791607442181223
0.45332875592529553
0.003327043665368598
-0.8203260047072632
0.6678341174974686
-0.5634712553228499
0.08756111332729324
-1.0019342572298586
0.21347372367298717
-0.32994121223568
-1.3322665723101597
-1.3413905410101297
1.3404101694208819
-1.2583161949132007
-0.9734258324836877
-1.8066425888531554
0.801225119253383
0.457617834967487
-0.14794653754404194
0.39576965912435896
0.2805318437893405
0.0905838723801215
0.9576575518399206
-0.37320930742191455
1.0323889780881585
0.020936277366788197
1.2454335583547202
0.40104650827815286
1.6385522909514163
-0.3664904028205494
-0.19128644526547506
1.4454557130995451
-0.06848311320561364
0.42262213141823896
0.5841395587003727
-0.5686147469129259
2.415055816459368
0.24944171051983383
-0.24970434134278408
-0.5168484372147529
-0.5300038322663289
-0.6689231199802148
-0.9384000817039174
0.07708109682682228
0.5582912670231912
0.9613714656003586
-0.9277392144241672
-0.24218687492235919
-0.6591422626135589
-0.7821100534060795
0.045962338198864805
0.765664275309523
-1.200800728616064
-0.12085261900474918
-0.6358524984796229
-1.6372404216078922
-0.06372082783908269
-1.2305419318760087
-0.5150246241416297
-1.4967700834957975
0.07787196675990361
0.8191970881388373
1.0741844201511432
-0.7112755145922662
0.887194607599307
1.0628138336720054
-1.1620478156126897
0.3193965705236049
-1.0414805960286824
-0.7337843861248604
0.8497686802804453
-0.9459512185479879
-1.1929267564460635
0.37459211164507955
-1.2896139145588557
0.6239625842854238
0.6280837420328135
1.0868495419916389
-0.47549754287941365
-0.5050816971289349
0.3463437599708092
0.5137875224870924
-0.2608344679833365
-1.4418625262835765
0.22188071500143844
0.8759139821668037
1.8467434730799746
-0.7026554192904835
-0.5722374613749563
-2.2827438543669416
0.44644303653493445
0.024610954531651155
1.4067359644933581
1.719088881451865
0.6003568565174462
-0.3938021541976641
1.2917246802817315
-1.1684669622370436
-1.3590770525849731
-0.1695989466820838
0.47581632038126176
-0.8221358671782029
-0.8740196009261946
-0.14837145822920128
0.40055781180525696
-0.34149048497760387
0.23412704120017364
0.1112567043638443
-0.10357028825229121
0.6878977447990352
0.0659474744977875
0.501487654239376
-0.12144205036305086
1.339735442267019
-0.18223643915817855
-0.37717765597533426
0.016646915354034654
0.611978584919855
-0.6946864710414481
-0.6732132360818989
0.5810965087334348
-0.6642323377098299
0.9446855441946145
-1.0585903920463502
0.6816107202784615
0.3470108868445436
1.2602518058046241
0.5547145030223524
-0.6222839203658603
0.5478616166467081
-0.6834819887815352
0.6191182320968445
0.10608756796771932
-0.9458526456886065
-0.5578333285812478
-1.2250429299275774
-0.5068605965686889
1.3430723119471684
2.4123931330673933
0.7939056236550495
-0.5315037071755753
0.945993468756245
-0.5989469794171322
-0.6939211085446355
-1.10885484736836
-1.034993172590294
0.7247148307372959
-0.7068014001760677
-1.4817702155852395
-1.2135970253807924
0.2236372836399069
-0.9325182148660082
0.5929126349020322
-1.2049469189605246
0.1448985272113183
0.6253721397622599
-1.0140844003308547
-0.23835152117844685
0.29180009365122894
-0.6634284692944802
0.6971046167103895
-1.206950753833463
0.25712738259657386
-1.1556812256631028
-0.7788405467449014
-1.1060149348973383
1.1773077900751394
-0.8833542945809333
-0.3724383053505366
0.3940024892714386
-0.22073014917914313
-0.7380287363902099
0.03704382189552864
-1.343450804117663
-0.8596601405137669
0.656763614893482
-0.46794872339440885
0.4466516754252
-1.286656779504311
2.3254124959594087
0.18666051899791417
-1.566171411418042
-0.4361057269487808
0.2141947946612023
0.12513349681121844
-0.21704166639371175
-1.0454862591100103
-0.36544231495694063
-1.9111592574905882
-0.9435815413801699
-0.8516267617824652
-0.14743939308515006
0.27270999752814434
1.2773196159657516
-0.04281660878699228
0.5836456904339556
0.2339913477169663
1.739813034389697
1.7974008048260826
0.1441046023765294
-1.2952776318727266
-1.1269399428815052
1.6552952501893892
0.5066135477420766
-0.6626223181496619
0.9747514859443276
-0.44879639556634765
0.4296254786346476
0.7239076420666124
-0.7349824932226787
0.8630695452788287
-1.8089257667812477
0.006806937075448686
0.2870126347483056
0.45570587006145785
0.23438637162903125
-0.8801483262098245
0.6736287858252143
0.2050457889109059
-0.4385258867329287
1.2879676103136233
-1.3715495792575778
-0.7114730100775646
-0.022223886905112875
0.3928272003886421
-1.44911926553144
-0.7430699997899234
-0.5791916948787361
0.7408032052776232
-0.06311861773732796
-0.024871263500860632
0.6798418603776196
-1.6354676797265688
0.7318108073857673
0.22728929184772792
-1.202171327556749
-0.6497407288161621
-0.9502931383805294
0.274511849389244
0.8210182032889196
0.557481425824217
-1.4567774114975407
0.14915665464735944
-0.7264229643810693
2.6272619638888317
1.298341456214087
1.505806047220871
-0.19632897245257408
-1.608197154799501
1.5382996855958937
-0.8400883784479658
-0.05940886766387233
-0.5307969485468548
-0.6748224413327247
1.3116242702029086
-0.831841175774747
0.20835795867531978
0.9873756214309416
0.5614313828423295
2.2406153861945333
0.9343191334245864
0.3632528734469099
0.06546974185622419
-0.8725006808613165
1.7402580857076566
2.6742182566252275
1.5821357586625766
-1.461180099224976
-1.8297384222165165
0.6077890193886197
0.22824982304858477
0.10256590378013818
-0.2544302868798299
1.373329741366969
1.3708057794661737
1.1808279901705152
1.0263186301391614
-0.08320713550155856
-1.801481187106762
-2.3805068587695835
1.7140186732052949
-0.21051411909072257
-0.31919019150900946
0.6801186856431352
0.8087933608561293
-1.239830138949265
0.7612131656547672
1.596049006513817
-0.5656999806899298
0.14637777783208572
0.5845713934351832
0.17881206004519143
-0.59072787230138
-0.47274899613078364
-0.35655677745078634
-0.29508373040720887
-0.6190615294186051
0.35530621831114295
0.5115717866539414
1.463588871174407
-0.3556044868280914
0.5524271940265333
0.4849173135552791
0.5661029999580418
0.8670455012100365
1.3702297062245825
1.8810391007756404
-3.4093757625425454
-0.9688875363676924
0.25697742744477375
1.9158417103873013
1.7324081182225823
0.03615028899892194
-0.04888745382228121
-0.30214861452161373
-0.023225630154059942
0.2320140277924109
-0.10000384414358551
-0.2928892292296162
-1.376968064769779
-1.6459081075335091
-1.659977593722247
0.08155312035170856
0.33714049430814
2.4500851829073373
-0.8593396022100062
0.9652299973260426
0.5491129209657825
0.3035964879430593
-0.29032822720907575
0.9233572325982947
0.6456926544742628
-1.7593280592812726
0.3389080865922839
-0.5043618035852265
1.8974649947399473
-0.6399845464704769
0.7349260641786964
0.7804874180554012
0.9252888654272795
1.222922377785706
0.8484800515505574
-0.323066463868797
0.3684342844477643
0.8820807378154432
0.2942410030518952
0.42080363010158944
0.2527617645433499
-0.24209881723711757
1.7690328747834212
1.3185299933190742
-1.588188616938022
-1.667327366515333
-0.14177791523318534
-0.524362371815223
-0.15731174553038207
0.7536733961435561
-0.936689950961613
-0.29015547376212064
0.4601188775178247
1.3574000588807018
-1.3880281269516517
0.14956891308423192
0.7721778710914732
0.16832270871654006
-0.28885757617448543
-0.3371801587596982
-0.5161733466883583
-1.4272041760175953
-0.666834608997331
0.9953811567448225
-2.785974208936496
-0.3658960674091067
0.4079947681672841
-1.95027223712781
-0.07778005985717097
1.493403498250673
0.3575219243917218
0.2911550245234118
1.0938362373731154
0.7478836192522028
0.1508584354503106
-0.04044388457191061
-0.318291213471699
-2.093707451818333
-1.6526510790585731
0.7781331290394209
-1.4633547647272365
1.9793367911567825
0.5928738504280215
-1.34180114673857
1.0906196060524653
1.848704959251759
-0.7465276502722253
-1.688308057909912
2.283109745311913
0.5356233802296748
0.15315479733565626
0.09712515644102049
-0.7151444430748048
0.9616067034154028
1.9252119982813733
-0.8083777140186487
1.274742432169524
-0.7735001080763727
-1.2471733347958363
0.2959846748179563
1.92448424925184
-0.5269293464922308
0.5539567853920432
-0.23861733729659432
-0.153661359870281
1.313849739963592
0.9794928212172694
-0.4032405767267419
1.4142470337570756
0.17862564355596763
1.049829738197892
0.8641715563501741
0.17645673795842565
-1.2760688832998395
0.1707106902121574
0.735817343384731
-0.4528853545892955
-1.1395629796048068
0.47171626554370666
0.8365472250450506
-0.14436943882051761
-1.01260627886649
0.4857607339662921
-0.9839695907501386
-1.0512006001691385
-2.6220738310025715
-0.02383716211970789
-1.0580180687776872
0.01053695098610691
0.33701189701506923
0.32259401955888944
0.6589630134877907
0.43535350557328784
0.06733479990449459
0.5988560273432391
2.0335353361488364
-0.3400426324978744
-0.16643945367270982
0.6286796371285847
-0.3121400547738988
0.3006981468604525
0.08576184448889813
1.9495466523191185
0.9303935791634784
-0.18167379034147807
1.1786226648740195
-0.5066103263510545
0.7222481705142851
-0.8513285068821969
2.8703797049653343
-0.018118115058236947
-0.8762715890588098
-0.7915977422794932
-0.21910720298969677
0.643396565947574
0.6070845957957662
0.3174922498501357
0.40212072654887576
0.6469284725769755
1.2752936215106139
1.4215198386284005
-0.3382158317681604
-0.5297653191105469
0.3013803229610872
-0.8563687448440619
-1.425909967794129
2.137423354176973
-1.364369947906778
0.7433535660127425
1.9994834355232596
0.03775737711021124
-0.9580402970563686
1.0063675547167923
-0.7257280100249759
-1.1992005017125569
1.5362457034525836
-0.031901519867584376
1.8947645227756404
-1.2906095065737517
0.2311589993314078
0.7888922868348142
0.5862177859840741
-0.6716401728714226
-0.12016489544798246
1.1348224731897918
1.0312794242556336
0.019365102597028713
-0.6737164835228048
0.9453609142974057
0.3922526639464809
0.8189150114520278
0.09014782769132722
-0.9589062788379529
-0.47251314952798606
1.642780080191726
-1.6235546208174092
1.4891119639628008
-0.6906328785394261
0.8732418725761033
1.9823950452138521
-0.8411895340589456
-0.9473880002371836
1.3475625621275338
0.5735188264063272
-0.9795382601689461
-0.07312345300621026
1.989648407671088
-0.04152893442056121
0.12057405126416533
0.13270948861333917
-1.043428584418818
1.3259497849479867
-1.1155889133337367
-0.5338885041142852
-0.35686290880295285
0.3123408170627644
0.2741680088263987
-0.0120516426705567
0.9683988832607119
-0.46941334067566937
0.5479505138406748
0.6029812750997225
1.870457601311419
-0.8672230187446689
-0.08061460511722951
-1.5073818431598354
0.30303673450399926
-0.844409769581993
0.11649538891586024
2.6008334176338925
0.4787212877068736
-0.3760924231740772
0.35275013377823505
-0.1811423489307517
-1.4432075409834737
-1.8853071633924818
-2.202356750938235
-0.4463203967025912
1.2433798640163403
1.2073170123609596
-0.7765396117905877
0.35814145625861626
-0.3084828932948391
2.016569897648836
0.705990553180693
2.335179438247223
-0.5750151175871518
-0.7400997946292698
0.12856299032352747
-1.771341921538753
-0.7818573665667093
-1.9050558124057535
1.4089536363027317
-1.3114922846864243
-0.6294697466097656
-0.8304977795510995
1.0507602668329041
1.100879381676691
0.31688250757467484
0.005476848941841576
1.3296523361522827
0.6464654448600671
0.7445054771421846
-2.099672884260551
-1.693025492627644
-0.5215903820791488
2.4272859425437963
-2.570842060758615
-0.030517808116984846
-0.5076915376820319
2.4628676357733075
-1.1058821078960719
0.2961059725106702
1.0690236798534176
-0.36382235719496586
0.9627387274739321
-1.1837859450666721
1.112421772377633
-1.6115461720100017
1.4638908265166553
1.1441784793228522
-0.48836319147829566
1.5355666110600408
0.025608210768136047
0.962895318837588
0.731231411268983
0.50088609876021
-1.577951700736014
-0.09281540310649607
0.647453786218598
0.8114712666066852
-1.2023059789838697
-0.2974138173670907
-1.3552818578551615
-0.3607348042718429
0.41818565900090304
-0.27924543725731515
2.33949099482045
-0.28973740117303254
-1.0994987210909055
0.4180533995512334
2.070358094184277
0.6219052831610195
0.3694036023840145
-0.8225821115345939
-1.714183916658238
0.7359383900360695
-0.9771848588212843
-2.3385028323170274
-0.7184950940512781
0.024221586335738288
-1.8080492917239137
-0.5947299039550219
0.48587448530353927
0.021827715991681762
0.9978385700702592
2.3287153147119906
-0.6990634331934508
-0.6330379669904341
0.10308831986956149
-0.15934125337257424
-1.1038896537953724
-0.8878473584991458
0.8168574912482215
-0.7027960283234442
0.6822813658547565
0.5307924174066226
0.2861111106174832
0.48153494620771653
0.2756853922849667
1.5588959833085092
0.5088471744293903
-0.45053666478275217
-0.1836723059497069
0.6991957562213923
-0.46890019405862354
-1.1801240677038511
-0.2438536820426965
0.98337520261742
0.38325921246092853
-0.2428059884880136
1.4270154639740718
-0.15169027531387652
-1.143386313717524
-1.2890199266074702
-0.3053429687541452
0.5000408669398015
1.407099803148667
-1.4702981634165677
-0.45315706821772833
-0.3797552277122196
-0.5520724719430439
0.5002019549889204
1.5718892823640278
2.29999305788911
0.9044867157792135
-0.564308738420312
0.6471231524426049
0.7747017114177985
0.08503721714860095
0.7663439723234661
0.3491543657606295
-0.6531368114561897
0.15880522004579073
-1.5678019684341076
0.6707113018409225
-0.25167426249132496
0.5841361291755193
-0.1735325435190716
-1.0881834135898014
0.42494909890874344
0.28973107970029494
0.26925876323955517
0.38655435527164667
-0.34570837315013414
1.0952820891449628
2.184863703979805
0.04108343385445955
-0.47647699882415995
-0.5375079009924227
-0.25746091011392663
-1.0524664585450876
-0.5835751390606578
1.7512326975483994
-0.9130175590539984
1.1752053160131402
-1.839586103557913
-1.558109886361996
1.5027495447022565
-1.3882395582750686
0.37107136452918127
1.857545142894968
0.5925683893375965
0.3769671726935209
-1.979916673948908
0.9389113952874919
-0.3427234006869147
-1.1879171487495919
-0.6386881933529744
0.7160498514592802
-0.36505535629236113
-0.4812361424371978
0.4439127975651914
0.5081546081475928
-0.28561440116567616
1.0637522396267183
-1.2939728826663652
-1.497635378732487
1.049420265108681
-0.47826288842440823
-0.5726666725468402
-1.5553353018031844
0.17907115600761486
-0.4690572698206071
1.2364664614816139
-0.3360012580840061
-1.9970797837505163
-2.3393672179314273
-0.19881441976706088
-0.4101584467787077
0.5012086966215198
2.437813886804094
0.6999639976752563
0.8478250152440108
1.5057293283449378
-0.21227804165442812
0.6773671147078937
-0.23964021426336288
-1.144044223098415
-0.6324146994557143
-0.5705613955318017
-3.034754826624238
-0.4164932024317881
0.9767961074147944
-0.6145353553207008
0.1729656404831661
-0.656650041027616
-0.8648756034521509
0.9550316408828472
-0.3476855786730743
0.5640686355000233
-0.03238439532019957
-1.7581338457181106
0.45619565691110275
-1.4031513743190147
-0.8829173930972465
0.49065408172896785
-1.535762564012794
-1.0615801021891618
-1.445224718858033
-0.16711278770132013
0.6567331203240708
-0.8398951991465201
-0.05252216013882653
-0.23783011742638016
0.5483966268405579
0.16481030197394478
0.9672342979916547
0.9294708813098176
-0.348518752409816
-1.1632039808604007
-0.4829539703637272
0.8618634371607632
1.242425490965299
1.1278685959162946
-0.759389103108346
0.4743756677026517
-0.7260700404755263
-0.246564257776009
-1.4255018167942428
-0.20106347414061757
-0.4293793736433223
-0.3659629631880602
1.0826387171013958
1.3285743052449845
1.2607220339351701
-1.4787787463307276
-0.35701576355894926
-0.7961958284680667
1.1002487399026153
0.5534521202741489
-0.08681039108468278
1.373677253197297
0.03223714160109739
-0.5604968169589943
-0.32448989489698565
1.2930870119380018
1.5852129380040965
-0.5492274262957707
0.8211225354006119
0.07465259020683639
0.10537752824283342
-0.8854950457716422
1.4333475482902525
0.8492608794121536
0.5463812326062477
0.7976800384450201
-0.27235170396836955
0.31511015827043987
0.7831553350779075
0.5614462777416636
-0.4473617847348176
-1.2482588890686714
0.06381314120850257
0.4337493207078492
-0.38934220310709095
0.2815124608188612
0.9149706982933081
-2.495014507708908
-0.7883800231335227
1.4082022002016101
0.5367990292413635
-0.7352147492687473
-0.20201947513228646
-0.5183650591968989
-0.1822657222728021
0.6911376981384916
1.112630575875976
-2.0020134733852606
-0.7953846931223058
0.5670085836747429
-1.929435688348406
0.9859828309726001
-0.7550674523973234
0.1506390092852867
-1.2086286471807772
0.170412099681564
0.4306445866081238
0.20751354513103965
-0.4813027921359193
0.837461639969303
-1.2336829952444086
-0.22789811874638582
-1.4637118680983712
1.252436199883002
0.9477519890861732
-0.27131458996310337
1.479145981928021
0.4893465396319108
-0.320702909434927
-2.1471079885226745
-1.920924695429175
-1.6428540818741524
1.0073956852763168
-0.641982019708705
0.4579302412711266
-1.1153353328101292
-1.1958130385841483
1.1474063573150692
0.5550493985920462
-0.2080396990553054
-1.242451109063073
-1.7990163665656842
-1.4857931466774421
-0.015758903449914978
-1.9203917499574916
-1.4778259814030996
1.0014167886655756
3.1441884756076273
-1.4527634027843954
0.8516456442494172
-0.1036073463028114
-0.5034972789772735
-0.9983312062049954
-0.614767330375277
-0.20315101402288405
-2.0393909086779116
0.8103086680014892
0.5780115915618006
-1.6018640599130878
0.9233573746746435
0.7207652584173231
0.1052689572101756
0.09674898729035505
-2.934425537311661
2.2605665771123533
1.848667822655779
0.21774630917702353
-0.13115862987868634
0.3516596687244776
0.002740695710145273
-0.5616855922756048
0.7094993536012044
0.5620344054573482
-0.3949861753722938
0.27507763823229897
-0.1451341331396966
0.4113859339079808
0.7613754013620458
1.2955043858862463
0.0289447585566614
2.5306788822283166
1.9978357767048396
-0.13130593145269956
-0.9572046678118842
-1.7695943542414516
0.625052063090294
1.204578421500002
1.9456909207399316
1.2478199080283032
-0.08681590747952218
-0.5405714844962279
-1.4510251338587996
-0.8899365343031045
-1.3117056443978616
-0.04984829015558243
-3.575445753819605
1.0673606924507262
-0.27268267458136747
-1.2253020097967267
0.212820361972371
-0.8644939120236247
-1.1690651914277437
0.6062640966888428
-0.8750392242261429
0.8188198819933848
0.2602978784537863
0.2278140580857293
0.6372761601702046
-0.8273676975739929
0.20728714510161578
0.44370748047665515
-0.6292690386587955
-1.0248331840976543
-0.4439793189210373
-1.5559029992998283
-0.16305182140594152
-0.1886825878454056
-1.319126872694469
1.333796298518316
-0.49417989905583853
1.3713078997912909
0.7742217695579882
0.015407634818370599
-0.01691521259513627
1.221627704644603
-0.31641735742877286
1.7616663997410449
0.7224853026139688
-0.8923804969607304
0.8133944929277716
-0.044692777891352925
-1.7884544665780726
-1.810711009823014
-1.2191688695716285
0.0741184438772606
0.5157178458663972
-1.5331064729553283
-1.0541922330552442
-0.07853031243730198
1.064418146379753
-2.0301058034846915
-0.10459370146290853
1.1911820364566272
-0.8026474237092917
-1.2705597806906892
0.2552741674341461
1.0040612913906113
1.3124778167080167
-0.508368877064859
0.8455302949841206
-3.0050438466461147
0.17232703474297448
-0.33055161366598657
-1.536943078656621
-0.3913675316654557
1.310678323710649
-1.344186988332652
2.2265691434856123
-2.0419696172501953
0.09808901852130417
0.7680440138660859
0.08483487873533507
0.31759589518271597
-1.017395329550823
-0.5488320196214392
0.7023971184370367
-0.3404074951719637
-0.839667883848885
-0.5246587658665451
-0.4262406536917047
-0.8445766709591017
-0.07206158549208211
0.01751944739493975
1.4317275063486972
-0.41115308549249163
0.07156789564557627
0.3480437250339691
-0.6522606890088792
0.3727611303760029
-0.2146659928302149
1.367980160256481
0.5205028392512022
-0.28873333642420446
-0.0008673016444802247
-1.7321078508571488
-1.0423869146166822
0.5811586282987545
2.4721287462618458
1.553766403596344
-0.4528293018935093
-0.6950739052165343
0.5109801837210395
-0.29377521803426077
1.665198970752308
0.32320541693025134
-2.522091673342451
0.5466823792985377
0.08258447679947299
-0.3550741259408268
-1.1889794690701627
0.3452154137349479
1.2389055626959842
-0.8419206173280659
1.5633915673561964
-0.11680388246096339
0.09718962515631534
-0.0067622050425468205
0.05047845194030952
-0.9986842495954114
-1.1193869338343936
-1.0146623976918352
1.493113253470131
0.18237192986474357
0.9298061289701663
2.647850452228928
0.5629724047631179
-0.41883195444859317
-0.4863392615540966
0.21166828340232738
0.7719239785535411
-1.689622900940502
1.2856194165315216
-0.46971739339699425
0.41685234801554066
-0.20877854748976254
-1.0401018750674642
1.0360967464961905
-1.2875276269484317
-0.7071347277594144
-0.10604335493324052
1.1565437858480432
-1.5348337361912259
0.33059277654522146
1.638619023697058
-0.332259789684072
0.8582249922932972
-1.094228224623226
0.007111057611149045
-0.7148933284224277
2.2367317255236423
-0.16611366652741447
0.7902159672536468
-1.0862398297953817
-1.4040806298111264
0.14306002109040747
-2.6626859080583882
-0.849334873588096
0.3655152003643252
0.9413154238132302
-0.5221825398203056
0.9224820003989069
-0.6963001043605639
-2.3564325036685005
0.9854417315074704
0.7957601002161838
0.2628440049789632
-0.3771323818665075
0.21069716229431443
-0.6276116492868894
1.0714639664222525
-0.6873827580440748
1.7723420668289473
0.08582622558611666
-0.14521233809524273
1.9189650988848708
1.2708455112302393
-0.6321721864931179
-0.8107719516677235
2.751788569407663
0.7420581845106248
-2.024230471133044
0.3109765534628351
0.6573031244423484
-0.7410308198883654
0.6674347792553436
0.3999285268498848
1.7687658771010792
1.40594505880641
0.07789337747629964
-1.1476898589818263
1.014585067769859
0.3482457318343626
1.309073927425064
0.9865293126838708
-1.1479367349272114
-0.7535975428813299
-0.21136207142137492
0.08417641219009617
0.831269936073404
0.1120767031473752
0.13849000138234047
1.101357162753287
-0.8716376922396921
0.698342023916221
1.2268851116432535
-2.3715383064877233
-0.7379597023956708
-2.269346990166377
0.5650396722210008
-0.22892785936734888
0.03873737372414972
-1.2528696440946312
-0.3697771902339409
-0.23842524265263307
0.6318883206385385
-0.031095974019811956
-0.6474743582921455
1.8413921175235775
-1.380503874671861
1.280289868089548
-0.44125745052529003
-1.72364752583888
-0.10401620491687816
0.25260438006304764
0.07860314453673735
-0.5608516068437587
1.335154439099108
-0.22510758811521425
0.01990526324593292
0.8645493500389548
0.19990413266232135
-0.374580584035457
0.7751137779081151
-0.19643937027900113
0.018341273200938167
-1.5693357780783486
-0.39148938490156276
0.9638895619338317
-0.3405428513889693
0.1991818779333899
-1.927180928900267
-0.26208478286356535
-0.6787910686257701
2.6981405568261208
-0.04077559016841501
-1.4976167222190178
0.8742191239416436
-1.4092819765300357
-0.33568991814029997
0.62887260233784
-0.25400126420517083
-0.3815609493089992
1.0588636376848308
-1.5149648623102994
0.46902880393783186
-0.2147077813138108
-0.3777790473157277
-0.17291087752280304
-1.3880021716247473
0.9125550596659363
-0.0947870282716887
-0.1644193623227861
-0.4057878031857174
0.014582129755576637
-0.6613074829341233
-1.7271255865021544
1.2530945882926738
-0.8773162246261524
-0.7604088700781115
0.17005454612568283
0.25346071424977507
0.31081021106128315
0.10229535521239136
-1.0597449435153161
0.2549579874707081
-1.0790058332005537
-0.0993434751282979
-0.67337528892383
-0.1553888343941186
1.3257409306131378
1.1732585656541117
-0.23907431687930536
-0.5778164364057868
0.07278060435769913
-1.8770551902897386
0.9033583425407666
-1.2799349200369141
2.0906366567562014
0.44482923208187114
-1.9008290205814433
0.3920137834845901
0.7386556873046307
-0.1798017791348306
-0.29103353550405997
0.3329547636465134
0.8044302820472317
0.45602535447628306
-0.9873885982128078
2.0609783657415535
-0.4650404792701732
-0.20182423416791637
0.9230637733414996
-1.1587694952321257
0.7455283461359361
-1.8945062760056777
-2.0302718901548964
1.5844647894899813
-2.374444332576955
-0.1278196839254204
-0.13354402209803273
0.5889879458870245
-1.0457297702673831
-1.1451392223381438
-1.19364117627512
0.12257278803855856
0.16924322927512767
-0.0670301697092705
0.5453095310139595
1.2029247752652608
-1.0640277156419224
0.3548696872848551
0.04572921974542832
0.32130769755316346
0.9059489734537541
-1.6121229046446763
-0.7919074872122958
-0.8216938262961688
-0.18594682991382622
0.3537552023983813
-0.4408744055194568
-0.5019774649727915
-2.5645917253928268
-0.6841499593782812
-0.47056594169365296
-0.8959145643746437
-1.614143084508586
1.1737219001798929
0.5634087571771643
-0.11240088817084039
-0.26708037574259014
-1.3568501192017526
0.6831523313937564
1.063146169631744
-0.7037684873679528
0.4265556483322003
1.244173942034332
-0.1319577165736693
2.499452211408902
-0.5887161590283697
-1.2616996399438243
0.8555878970162938
1.2120668291274341
1.6023451942411735
-0.19157536818872134
2.086593267980754
0.36861098527739566
-0.273020204091676
0.6351829406696373
-0.5257911828674265
-0.6255742064858741
-0.5559421928741792
0.45720095476579564
1.0697223431882672
1.0180899307129672
0.8478242344300961
0.38178074361813796
0.43199455622873906
-1.1235661157638135
-0.5668101344985953
-1.367557633277066
-0.8886998718754839
-0.14741330522472917
-0.42416726931025617
-0.28676934508432883
-1.0675618468990629
-0.0730622452981918
-0.560785942076305
-0.5268863788760163
-1.201757337669511
0.9831405142391223
-0.54439986913757
-2.1729525731780126
1.200487474408597
0.2733258427242493
0.29329237160181615
-0.1845496840566614
-0.17737105469906944
-1.6002260049375858
0.007923573736057989
-0.8541159307157373
1.0744448400475166
1.101868005860036
0.7432114349452921
-0.9616501898439722
1.0999819944078928
0.3348080121719658
-1.208218529319447
0.3751116924168429
0.09022578104011093
-1.9637254158479642
-0.3171217950363844
0.06689104380551744
-0.2634163508823196
-0.6745991514329785
-2.0240738348898373
1.521140894519752
1.2061441415282947
0.6759463992816163
-1.3648356695401354
-0.014924760240632183
0.8453105887025854
-0.3411420685647388
-0.9190609677373301
-2.1526726080666316
1.2015697311618911
-0.33206885003078296
-0.6081671479460923
0.2573901655198474
2.245400703877739
-0.6042535801519561
-0.8925999725880032
0.4980968624951124
-1.4160105267920715
1.1355460126685024
-1.3146019464454384
-0.11610784990078732
0.5840211738136442
-0.6094982450975761
-1.5443011674703067
-0.07018004322284188
0.7484102810709343
0.6703082789550133
-0.2414441441784805
1.269696889137538
0.6607036731490106
-1.211791748024905
0.2166867726760226
-0.11587993763747413
0.22567529621586346
-0.810598993918568
1.305318659675926
0.9266683931766827
1.9391639379046082
-0.3397341628863495
-0.9433981436370036
-0.6546111081247361
-1.6756089204153355
0.8526148183162326
1.0860381371308234
-0.590813285796277
-1.2164870431191885
0.17988004394358206
-0.38052407303921165
1.4093882953482308
-0.07281132806010047
1.5683835829749653
1.3010954697739738
-0.6758469037173301
1.2168033102585112
1.7985073352177836
-1.5968642395636665
-0.9261229727668069
0.9036625452963503
-0.8243531265068715
1.400561224078495
0.8018894233747923
0.5945869715890375
-1.1788757572017357
-1.0418735345986776
-2.2216944511031036
-1.530000228425718
-0.7161528410980722
-0.38213249830174123
-1.4173374465853164
0.8029924514272355
0.2049489502076026
1.1636148407198759
2.628968624188505
-0.2357000517337164
0.8822542054730523
-1.0606469473225781
-0.09386973726801405
-1.0005359537527239
-1.2903069143485357
0.5581923758133487
-0.9403200379547249
0.5855075495648848
-0.29363908382844645
-0.918829090335189
0.20408193370276603
-0.2753750598027733
-0.9585496546714858
1.6266635262233382
-0.7566273861574714
0.17841532267007779
-0.04687271300335562
0.6721835921538654
0.6507225520305652
-1.0121590826627258
-2.6602921305440463
0.4133469956238258
-0.7889345821566458
-0.2679533125971643
0.3649713696131531
0.33749028160798894
0.8754846900558686
1.4590003520597004
-0.1524317080766546
-0.795166465620404
0.6120330911409568
1.8204626058847955
0.35005697669067304
-1.3396612669316226
0.2521413888135353
0.8503097383285622
0.5800585298098738
0.007384518177562831
-0.5527650008690177
-1.1465772812518886
-2.0399581909933864
1.1384783974088497
0.5975074105998753
-0.3345352313876298
0.7967292076943308
-0.5055766340630107
-1.4460627867073619
-2.5284327490815373
-0.7844569726050424
-0.6289077223815298
-0.47476622842605837
0.1497226596262273
-1.9017737903525265
1.7755994150428598
1.351265073349654
0.7840114710870549
-1.7861300217187173
-0.7165564539263648
-3.3046893783393787
-0.09013275529754289
